tree
version=v4
num_class=1
num_tree_per_iteration=1
label_index=0
max_feature_idx=22
objective=binary sigmoid:1
feature_names=loctm cano contp etymd mchno acqic mcc conam ecfg stocn scity stscd ovrlt hcefg csmcu csmam flg_3dsmk diff_conam is_city_first_appearance is_csmcu_first_appearance cano_count Is_First_Occurrence freq_perday
feature_infos=[18:235956] [0:7654] [2:6] [0:99] [0:2753] [0:300] [0:999] [-566.10408240000004:578267.80669108417] [0:1] [0:999] [18:17329] [0:99] [0:1] [0:999] [1:999] [-705.74469120000003:2199204.0637795161] [0:1] [-13282.665337872601:13122.654062774243] [0:1] [0:1] [1:8] [0:1] [1:3]
tree_sizes=3257 3319 3294 3312 3321 3322 3320 3345 3327 3339 3328 3343 3351 3351 3339 3347 3347 3352 3359 3342 3343 3367 3360 3358 3348 3357 3361 3349 3368 3356 3343 3357 3349 3340 3359 3369 3369 3367 3378 3383 3375 3363 3365 3377 3372 3374 3359 3369 3361 3374 3358 3377 3376 3383 3376 3376 3380 3370 3378 3384 3363 3371 3373 3373 3374 3377 3376 3383 3375 3376 3363 3382 3377 3379 3383 3364 3386 3374 3355 3381 3373 3364 3372 3380 3386 3386 3376 3366 3382 3375 3391 3376 3377 3380 3373

Tree=0
num_leaves=31
num_cat=0
split_feature=11 9 9 7 20 9 20 15 10 7 7 7 15 6 6 0 10 9 0 13 0 21 6 1 7 1 6 15 15 1
split_gain=1459.38 591.727 464.159 211.504 185.04 129.867 64.4527 47.6338 34.7264 92.6212 31.1012 29.3249 33.5601 24.4126 24.3389 28.0667 19.2831 17.3743 15.643 17.3581 13.0082 12.065 18.0702 11.9221 11.1681 9.8637 5.42153 4.05884 3.93085 3.89022
threshold=50.000000000000007 1.0000000180025095e-35 562.50000000000011 1141.8629848251396 1.5000000000000002 123.50000000000001 1.5000000000000002 1279.5779960928282 11381.000000000002 2175.4976789671828 3323.8296976083652 3219.9431460575729 3589.1094860844928 320.50000000000006 304.00000000000006 65134.000000000007 10145.000000000002 114.00000000000001 150135.00000000003 4.5000000000000009 34625.500000000007 1.0000000180025095e-35 416.00000000000006 5217.5000000000009 414.12586684984905 2832.5000000000005 347.50000000000006 1516.3445626690639 922.92341888835631 5863.5000000000009
decision_type=2 2 2 2 2 2 2 2 2 2 2 2 2 2 2 2 2 2 2 2 2 2 2 2 2 2 2 2 2 2
left_child=-1 21 3 4 7 11 8 14 9 16 28 23 -13 -8 -3 20 27 -6 29 -20 26 22 -2 25 -18 -5 -16 -4 -7 -17
right_child=1 2 6 5 17 10 13 -9 -10 -11 -12 12 -14 -15 15 18 24 -19 19 -21 -22 -23 -24 -25 -26 -27 -28 -29 -30 -31
leaf_value=-1.7663016407424752 -2.3342783871075543 -2.336371378021997 -2.3455331495720113 -2.1613212288140451 -2.0014928317111322 -1.8651494235702804 -2.2325590286656292 -2.0439966472044344 -2.3495625663393502 -1.9952138589678035 -2.0031132117739268 -1.8842853405023297 -2.1696601017063708 -1.9613074061538287 -2.2382998037452442 -2.317657576904625 -2.2983169977593989 -1.8256815948979284 -2.319627450706454 -2.181634394554218 -2.0086688005606508 -2.3500304466714219 -2.1602252626624825 -2.0818636828257402 -2.1270722865777065 -2.3257161515484697 -2.1120027519937179 -2.2777676324175959 -1.7785892993229631 -2.2325590286656292
leaf_weight=12.525270514190195 5.3087239265441886 5.9723144173622122 13.188861005008226 1.8248738497495653 2.9861572086811057 1.7419250383973119 1.6589762270450585 3.2350036427378646 42.220944978296757 2.6543619632720938 2.5714131519198418 2.2396179065108299 1.9078226611018179 1.658976227045059 1.7419250383973151 7.0506489649415034 1.8248738497495645 2.6543619632720947 2.9861572086811092 9.6220621168613381 1.7419250383973119 324.16395476460457 2.073720283806324 1.658976227045059 1.9907714724540708 1.8248738497495649 1.658976227045059 2.6543619632720938 5.3087239265441895 1.658976227045059
leaf_count=151 64 72 159 22 36 21 20 39 509 32 31 27 23 20 21 85 22 32 36 116 21 3908 25 20 24 22 20 32 64 20
internal_value=-2.29809 -2.31331 -2.22211 -2.12128 -2.18487 -1.98358 -2.31185 -2.22695 -2.3229 -2.27245 -1.85426 -2.11518 -2.01556 -2.09693 -2.2452 -2.22462 -2.30988 -1.91876 -2.24992 -2.21432 -2.11978 -2.34859 -2.28539 -2.193 -2.20897 -2.24352 -2.17669 -2.33418 -1.79997 -2.30145
internal_weight=0 459.785 128.239 60.3867 41.3085 19.0782 67.8521 35.668 64.5342 22.3132 9.62206 9.45616 4.14744 3.31795 32.433 26.4607 19.6589 5.64052 21.3178 12.6082 5.14283 331.546 7.38244 5.30872 3.81565 3.64975 3.4009 15.8432 7.05065 8.70963
internal_count=5694 5543 1546 728 498 230 818 430 778 269 116 114 50 40 391 319 237 68 257 152 62 3997 89 64 46 44 41 191 85 105
is_linear=0
shrinkage=1


Tree=1
num_leaves=31
num_cat=0
split_feature=9 9 11 11 7 5 5 22 9 17 4 6 14 10 0 0 1 21 6 6 9 7 7 5 7 7 8 5 6 0
split_gain=913.539 471.502 178.776 150.893 114.287 57.7619 82.8489 56.2247 46.3414 33.6993 25.9452 25.1895 24.325 20.7965 19.8331 17.5867 17.059 13.9005 13.2384 13.1201 12.4001 10.8631 8.78998 7.50948 5.58193 14.9857 4.25293 3.80683 3.19215 3.83289
threshold=1.0000000180025095e-35 562.50000000000011 50.000000000000007 50.000000000000007 1031.603094153809 219.50000000000003 237.50000000000003 1.5000000000000002 123.50000000000001 -1.0000000180025095e-35 410.50000000000006 298.50000000000006 69.000000000000014 12171.000000000002 212007.00000000003 85041.000000000015 3134.5000000000005 1.0000000180025095e-35 416.00000000000006 323.50000000000006 122.00000000000001 2980.1199502011564 3974.4310677586495 231.50000000000003 268.98906256826166 82.054538504647709 1.0000000180025095e-35 38.500000000000007 316.50000000000006 144914.00000000003
decision_type=2 2 2 2 2 2 2 2 2 2 2 2 2 2 2 2 2 2 2 2 2 2 2 2 2 2 2 2 2 2
left_child=17 2 -2 -3 7 -5 -7 9 11 -4 -11 -6 -13 15 21 20 -17 18 -1 -14 -12 26 -10 -21 25 -15 -8 -19 -28 -30
right_child=1 3 4 5 8 6 14 -9 22 10 13 12 19 24 -16 16 -18 27 -20 23 -22 -23 -24 -25 -26 -27 28 -29 29 -31
leaf_value=-0.026512344970731079 0.33259819918325562 0.34245903289946417 0.26398164654451228 -0.042470118924667934 0.018065137174525365 0.29565527127523156 -0.054859309966358807 0.31589356792095286 0.30176988774427488 0.24347717429470925 0.082043781199027915 0.3316799353379673 0.23192902718903091 -0.037686987146669682 0.17275661458551939 -0.0014961365411977597 0.094482243500838614 0.015127550030158008 0.11684929186626634 0.16523898519561903 0.21785656182030766 0.10829239026685254 0.19329500455328349 0.029535010725427687 -0.036648372204978789 0.14013539890758564 -0.036927760821498248 -0.051696952443649295 -0.010308150381176674 0.088762786389608758
leaf_weight=5.2781260237097731 15.211695060133932 3.1171506270766249 2.3339999467134467 48.246656462550163 2.7041795924305925 3.1277149468660363 5.5559650436043722 2.6787561476230612 12.369409777224062 2.0054020807147017 3.2620678991079357 2.3180832117795935 2.6027904674410811 2.8125459477305395 1.75246299058199 7.4169821366667774 12.319136247038839 2.1460497155785552 2.3173058405518532 1.8075476884841917 3.4668557643890381 1.8238588795065869 2.1996415704488763 2.3381525129079819 5.3978733569383621 2.047184593975544 2.7737361416220665 308.84883385896683 2.233917281031609 1.7341468557715414
leaf_count=65 122 25 21 596 29 33 69 24 105 22 35 23 27 32 20 85 136 27 25 19 36 19 21 25 64 24 34 3884 27 20
internal_value=0 0.0981828 0.177224 0.00237497 0.143498 -0.0133889 0.0604501 0.0939494 0.22578 0.0794704 0.0683506 0.151996 0.191942 0.058787 0.014107 0.0822123 0.0584128 -0.0496036 0.0172261 0.143943 0.152017 -0.00558109 0.285392 0.0887027 -0.00165113 0.0372215 -0.0224695 -0.0512358 0.00422325 0.0329884
internal_weight=0 155.658 85.2923 70.3656 70.0806 67.2485 19.0018 43.7408 26.3398 41.062 38.728 11.7708 9.06657 36.7226 15.8741 26.465 19.7361 318.59 7.59543 6.74849 6.72892 14.1216 14.5691 4.1457 10.2576 4.85973 12.2978 310.995 6.7418 3.96806
internal_count=5694 1693 850 843 728 818 222 479 249 455 434 123 94 412 189 292 221 4001 90 71 71 169 126 44 120 56 150 3911 81 47
is_linear=0
shrinkage=0.05


Tree=2
num_leaves=31
num_cat=0
split_feature=9 9 11 11 7 20 20 5 5 9 6 15 0 0 6 7 5 0 15 20 7 5 14 15 0 5 6 0 8 18
split_gain=791.885 343.899 108.207 103.289 73.3198 74.8378 60.0805 51.6008 55.557 30.98 27.6433 27.3182 18.5758 15.097 13.99 15.0416 16.6333 11.6007 12.9105 11.5773 9.30783 8.54443 7.77677 7.05895 6.6815 4.81619 4.60855 4.11702 3.89898 3.5518
threshold=1.0000000180025095e-35 562.50000000000011 50.000000000000007 50.000000000000007 1141.8629848251396 1.5000000000000002 2.5000000000000004 219.50000000000003 237.50000000000003 123.50000000000001 304.00000000000006 1279.5779960928282 213424.00000000003 65134.000000000007 298.50000000000006 2580.2756425567336 296.50000000000006 160677.00000000003 234.36479409184935 1.5000000000000002 2980.1199502011564 183.50000000000003 71.000000000000014 368.083319559784 34625.500000000007 35.500000000000007 352.50000000000006 122127.50000000001 1.0000000180025095e-35 1.0000000180025095e-35
decision_type=2 2 2 2 2 2 2 2 2 2 2 2 2 2 2 2 2 2 2 2 2 2 2 2 2 2 2 2 2 2
left_child=6 3 -3 -2 5 10 25 19 -9 14 -5 13 20 24 -6 16 -16 21 -19 -4 28 -15 29 -11 26 -1 -12 -17 -10 -7
right_child=1 2 7 4 9 22 -8 8 12 23 11 -13 -14 17 15 27 -18 18 -20 -21 -22 -23 -24 -25 -26 -27 -28 -29 -30 -31
leaf_value=0.032720358298243143 0.2518012046125756 0.25765240994791289 -0.046831071088264196 -0.039596015555827528 0.021456694011200796 0.29285850929143259 0.22884240001963263 0.22328126007963023 -0.054600070205139864 0.16244028019050186 0.035452177331530353 0.19780234874345456 0.16372174760491021 0.052649844937339596 0.17560586770898307 0.16708871052874297 -0.011154971833540799 0.12752643041249445 0.021662592229425497 0.08223524782861176 0.094440596832010504 -0.033175163504180372 0.14836622702080532 0.24557112535332346 0.19019646140323751 -0.051399756057589868 0.14016832056462555 0.25821066377341761 0.00229071549370829 0.21513894393441024
leaf_weight=1.7111840471625317 18.96581095457077 3.9100162684917441 44.778207197785378 6.4097409918904296 2.5797612741589573 2.5572949573397619 1.9312028810381878 3.909180440008643 5.309455372393133 3.1559304147958782 2.1795534417033222 3.9175656884908667 1.8157262876629818 5.0876151397824305 2.5783060565590841 2.437082901597023 2.21759083122015 5.7191580906510335 5.8013326078653336 1.8076316714286793 1.9822989180684079 6.7442822307348251 2.8884437829256058 13.380175575613974 2.4202719256281853 302.11408775299788 2.028644822537899 2.5227440372109413 6.9590142667293549 3.4576131030917168
leaf_count=21 122 25 577 76 27 20 21 33 69 24 22 35 18 58 24 20 23 60 62 19 19 77 22 92 21 3959 19 20 83 26
internal_value=0 0.086091 0.00202123 0.147138 0.121716 0.0846047 -0.0491589 -0.0129953 0.0542347 0.184972 0.0556261 0.0736314 0.0131035 0.0574061 0.125004 0.152386 0.0892489 0.0385029 0.074217 -0.041823 -0.00608711 0.00372886 0.2158 0.229706 0.124003 -0.050926 0.0859327 0.213437 -0.02233 0.248182
internal_weight=0 167.52 70.4715 97.0489 78.0831 49.2115 305.756 66.5615 19.9757 28.8716 40.3082 33.8984 16.0665 29.9809 12.3355 9.75572 4.7959 23.3524 11.5205 46.5858 14.2508 11.8319 8.90335 16.5361 6.62847 303.825 4.2082 4.95983 12.2685 6.01491
internal_count=5694 1693 843 850 728 498 4001 818 222 230 430 354 189 319 114 87 47 257 122 596 171 135 68 116 62 3980 41 40 152 46
is_linear=0
shrinkage=0.05


Tree=3
num_leaves=31
num_cat=0
split_feature=9 9 11 11 7 20 20 5 5 6 13 9 15 0 3 1 6 14 15 10 20 15 7 5 9 8 6 3 15 3
split_gain=698.241 264.057 84.3377 69.9398 52.1585 58.6447 49.1968 46.5269 40.5348 20.3971 17.3679 16.88 15.831 14.6569 12.8866 14.8341 12.6551 10.6029 13.1449 11.7581 10.5301 9.46885 7.98484 5.45383 4.86351 3.75302 3.11251 4.46699 2.84003 2.6083
threshold=1.0000000180025095e-35 562.50000000000011 50.000000000000007 50.000000000000007 1031.603094153809 1.5000000000000002 2.5000000000000004 219.50000000000003 237.50000000000003 304.00000000000006 4.5000000000000009 123.50000000000001 1084.7312470818208 213424.00000000003 54.000000000000007 3134.5000000000005 298.50000000000006 69.000000000000014 1709.5941127097287 11165.000000000002 1.5000000000000002 368.083319559784 2980.1199502011564 29.500000000000004 114.00000000000001 1.0000000180025095e-35 316.50000000000006 6.5000000000000009 2979.7874015388993 3.5000000000000004
decision_type=2 2 2 2 2 2 2 2 2 2 2 2 2 2 2 2 2 2 2 2 2 2 2 2 2 2 2 2 2 2
left_child=6 3 -3 -2 5 9 23 20 -9 -5 29 16 14 22 15 -12 -6 -18 19 -19 -4 -13 25 -1 -7 -10 -27 -28 -25 -11
right_child=1 2 7 4 11 24 -8 8 13 10 12 21 -14 -15 -16 -17 17 18 -20 -21 -22 -23 -24 28 -26 26 27 -29 -30 -31
leaf_value=0.044247542449854245 0.2061835356839751 0.21048704613421948 -0.046307421013094374 -0.038469080564046895 0.015790330125777803 0.14646135358589957 0.18157212724145844 0.18089705441546949 -0.0543557798177308 0.024576514745823706 -0.012507762201291399 0.11352126325163941 0.16739494582454861 0.13707821424812047 0.15313560845350849 0.077791967092169748 0.21004392806359742 0.12902441383809668 0.17094998911348433 -0.034756405762571461 0.07316840940072955 0.19920539673230342 0.08344016422531253 -0.052764065649336923 0.2158600828651864 -0.037556320676952915 0.092588022782080587 -0.013609906578325072 -0.036841334118663686 -0.041904802959475546
leaf_weight=1.5095652118325222 21.913810610771179 4.5279253274202338 43.063899353146553 6.0481970831751815 2.7813323661684981 5.0763253197073919 2.3008457198739043 4.5638860166072872 5.0726343393325823 2.4773044660687438 6.8923042267561057 4.0158960074186352 4.2030049338936797 2.0532103776931754 3.3356787413358679 13.371900469064711 3.3198489397764197 2.133211135864256 3.9121223613619804 2.253479115664959 1.9267250075936306 16.357553973793983 2.1273799985647193 258.22540836036205 5.0222401767969131 2.887923501431942 1.6872892305254934 2.3967598378658295 31.411033228039742 3.6478203013539314
leaf_count=18 122 25 577 74 29 36 21 33 69 26 74 28 34 18 33 130 23 18 31 22 19 98 19 3534 31 36 19 28 428 41
internal_value=0 0.0770022 0.00176135 0.126552 0.105985 0.073317 -0.0487232 -0.0126062 0.0492551 0.0461211 0.0612006 0.153028 0.0779916 0.0122264 0.0620694 0.047079 0.111592 0.134525 0.104315 0.0448889 -0.0411909 0.182316 -0.0058619 -0.0505432 0.180975 -0.0216349 0.00217203 0.0302648 -0.0510372 -0.0150165
internal_weight=0 177.07 70.3076 106.762 84.8482 50.0748 293.447 65.7797 20.7891 39.9762 33.928 34.7734 27.8029 16.2252 23.5999 20.2642 14.4 11.6187 8.29881 4.38669 44.9906 20.3734 14.172 291.146 10.0986 12.0446 6.97197 4.08405 289.636 6.12512
internal_count=5694 1693 843 850 728 479 4001 818 222 412 338 249 271 189 237 204 123 94 71 40 596 126 171 3980 67 152 83 47 3962 67
is_linear=0
shrinkage=0.05


Tree=4
num_leaves=31
num_cat=0
split_feature=9 9 11 11 20 7 20 10 7 10 20 6 4 20 9 0 4 7 10 15 7 15 0 4 3 7 15 19 15 4
split_gain=622.789 209.834 68.8292 52.073 41.9685 38.9884 44.2503 37.5101 47.7673 29.0516 21.6359 17.4578 18.6747 13.7136 12.4068 11.0628 10.5769 11.3716 11.4468 9.28859 7.75528 6.7037 6.08755 5.40308 5.33929 2.90894 2.66909 2.18519 5.52549 2.29019
threshold=1.0000000180025095e-35 562.50000000000011 50.000000000000007 50.000000000000007 2.5000000000000004 1031.603094153809 1.5000000000000002 11309.000000000002 1289.7828838603637 10145.000000000002 1.5000000000000002 304.00000000000006 426.50000000000006 1.5000000000000002 123.50000000000001 65134.000000000007 1620.5000000000002 3057.3533778189008 11165.000000000002 1393.3445179529995 77.035186676680084 368.083319559784 162245.00000000003 1438.5000000000002 6.5000000000000009 257.30803764131809 2979.7874015388993 1.0000000180025095e-35 954.56692351352262 2075.5000000000005
decision_type=2 2 2 2 2 2 2 2 2 2 2 2 2 2 2 2 2 2 2 2 2 2 2 2 2 2 2 2 2 2
left_child=4 3 -3 -2 26 6 11 8 10 22 27 -5 -13 -9 16 24 -7 18 -18 20 -17 -16 -10 -8 25 -14 -1 -4 29 -29
right_child=1 2 7 5 -6 14 23 13 9 -11 -12 12 15 -15 21 19 17 -19 -20 -21 -22 -23 -24 -25 -26 -27 -28 28 -30 -31
leaf_value=-0.051884046605769167 0.17646923366113129 0.18002491596562814 -0.054941926880027803 -0.037749929906128132 0.15079967581459697 0.1576968929065049 0.11536051609616249 -0.049093022248875899 0.11778287889309864 0.26043056605084769 0.15248787764489458 0.19001318601316752 0.10447530258512977 0.079362962945285914 0.100211569289298 -0.035986656967407514 0.096638423903919038 0.13037378745226874 -0.041118948016139925 0.1145946409155815 0.034638922380483321 0.16953684266734878 -0.0060968831189625403 0.18514728975637504 0.15298260832475299 0.026685362476364834 -0.036238881942463795 -0.0052155724146508899 0.073614825378394269 -0.054449144794339592
leaf_weight=248.35863175243139 24.254499584436417 5.01500479876995 4.809785477817063 5.8600591272115699 2.6222811937332144 5.0337473377585402 4.9945691376924497 37.974642038345337 1.9977649971842759 3.108325183391571 1.8824733793735493 2.4021402746438971 2.4539536759257308 2.1979569345712653 4.3134065791964558 4.9872823953628602 2.8955547809600812 4.4276734888553619 3.1468148753046989 2.866810902953147 17.618501387536526 18.204609215259552 1.9692533314228056 6.2370593249797821 2.8252304941415787 2.3552273139357567 30.622295722365379 4.9334358349442464 1.5302891880273826 4.5317873954772949
leaf_count=3550 122 25 62 74 21 37 29 522 20 22 15 18 20 21 28 53 24 31 31 21 184 98 20 38 22 20 430 59 16 61
internal_value=0 0.0698268 0.00155447 0.111399 -0.0482954 0.0939835 0.0661005 -0.0122289 0.0361733 0.145972 -0.00774745 0.0422051 0.0554001 -0.0420648 0.132558 0.0456329 0.0981365 0.0695012 0.0248956 0.0298097 0.0190575 0.156257 0.0562882 0.154114 0.0984279 0.0663788 -0.0501668 -0.0268321 -0.014536 -0.0287878
internal_weight=0 184.828 69.9507 114.877 281.603 90.6226 52.6008 64.9357 24.7631 7.07534 17.6878 41.3692 35.5091 40.1726 38.0218 33.107 15.5038 10.47 6.04237 25.4726 22.6058 22.518 3.96702 11.2316 7.63441 4.80918 278.981 15.8053 10.9955 9.46522
internal_count=5694 1693 843 850 4001 728 479 818 275 62 213 412 338 543 249 320 123 86 55 258 237 126 40 67 62 40 3980 198 136 120
is_linear=0
shrinkage=0.05


Tree=5
num_leaves=31
num_cat=0
split_feature=9 9 11 11 6 5 13 5 21 7 14 4 6 1 4 7 6 14 10 6 6 10 6 5 4 4 7 19 6 6
split_gain=558.422 172.82 58.7768 40.361 36.4088 28.0664 23.6489 21.5824 15.6884 12.7001 19.2155 10.1561 12.5973 9.57316 12.8369 9.43335 7.38565 7.15001 6.30106 6.32316 8.5523 6.08371 5.9155 5.80685 5.59285 5.48168 5.21 4.86079 4.56294 8.15088
threshold=1.0000000180025095e-35 562.50000000000011 50.000000000000007 50.000000000000007 281.50000000000006 219.50000000000003 4.5000000000000009 237.50000000000003 1.0000000180025095e-35 489.85872711017652 541.50000000000011 1064.5000000000002 750.00000000000011 5774.0000000000009 598.50000000000011 3693.4534448694626 325.50000000000006 78.500000000000014 15729.000000000002 288.50000000000006 325.50000000000006 10685.000000000002 361.00000000000006 29.500000000000004 2752.5000000000005 1402.5000000000002 772.47904633884525 1.0000000180025095e-35 323.50000000000006 406.50000000000006
decision_type=2 2 2 2 2 2 2 2 2 2 2 2 2 2 2 2 2 2 2 2 2 2 2 2 2 2 2 2 2 2
left_child=8 3 -3 -2 15 28 26 -7 22 10 13 -11 17 14 -8 27 -12 24 19 -9 -21 -16 -1 -10 -13 -15 -6 -5 -4 -30
right_child=1 2 5 4 6 7 9 18 23 11 16 12 -14 25 21 -17 -18 -19 -20 20 -22 -23 -24 -25 -26 -27 -28 -29 29 -31
leaf_value=-0.017357674944724257 0.15723293765021557 0.15860324008208926 -0.050302782683723561 0.041136405969662344 -5.396479580355569e-05 0.12940710120197954 0.17693539175906928 -0.033377172028441614 0.052263165033917661 0.14715942263960566 0.10046865249000092 0.079474660807691666 0.016182833258076894 -0.023824974663998799 0.04073323400676776 0.096652385486721018 0.20585197724630158 0.17799130772309019 -0.027349480560119273 0.14040504610864321 0.015525135485284515 0.11138398598187774 0.072056700185983633 -0.049884075474379397 0.14687822989079721 0.062495178043654613 0.091996412486601342 -0.048110018285628504 0.037831707954713627 -0.040314088836714917
leaf_weight=3.9683024063706389 25.24853977560997 5.3967051208019248 25.40919641405344 2.0177383422851545 7.0084459111094457 4.6507834792137155 2.9440877661109068 2.2851025089621526 1.3987782448530186 22.165337219834328 3.1028963625431052 9.8956239446997696 3.7845545485615721 4.1873931288719168 9.9704512134194356 1.9207275807857502 3.5817669183015823 3.7473512217402449 7.2611377984285363 2.2702082917094231 3.4613396748900414 4.3880124762654296 3.4648647159337997 260.99132001399994 4.46673659980297 3.2797452956438065 1.9690684303641317 6.2563290223479271 4.8525619432330123 10.682683400809763
leaf_count=52 118 25 359 22 71 28 23 28 17 124 24 71 27 33 84 15 30 27 94 21 36 38 33 3892 27 28 16 73 64 150
internal_value=0 0.065257 0.00045529 0.101063 0.0860851 -0.0135653 0.096855 0.035099 -0.0473103 0.105976 0.0817075 0.123301 0.0991473 0.0614057 0.0818259 -0.00317286 0.156935 0.116485 0.00639018 0.0369501 0.0649888 0.0623244 0.0243216 -0.0493395 0.100437 0.0140889 0.0201358 -0.0263461 -0.0372513 -0.0159046
internal_weight=0 186.205 66.2697 119.935 94.6863 60.873 84.4915 19.9286 269.823 75.514 31.4544 44.0596 21.8943 24.7697 17.3026 10.1948 6.68466 18.1097 15.2778 8.01665 5.73155 14.3585 7.43317 262.39 14.3624 7.46714 8.97751 8.27407 40.9444 15.5352
internal_count=5650 1656 805 851 733 780 623 207 3994 536 260 276 152 206 145 110 54 125 179 85 57 122 85 3909 98 61 87 95 573 214
is_linear=0
shrinkage=0.05


Tree=6
num_leaves=31
num_cat=0
split_feature=9 9 20 5 20 6 13 5 7 5 15 14 14 7 9 9 7 9 7 3 3 15 5 5 5 4 15 6 6 0
split_gain=503.849 142.416 48.9049 30.5843 22.2859 22.1453 28.0717 18.997 18.7496 12.5259 10.6042 10.341 18.3244 13.6665 12.947 11.9029 8.39729 8.25023 6.57153 6.39641 6.34792 5.07377 5.05481 5.05087 4.67379 6.30483 3.82624 3.75671 3.75645 3.73309
threshold=1.0000000180025095e-35 562.50000000000011 2.5000000000000004 216.50000000000003 1.5000000000000002 281.50000000000006 4.5000000000000009 277.50000000000006 6606.2792743797518 43.500000000000007 2061.3838342706908 71.000000000000014 69.000000000000014 409.28074680749904 123.50000000000001 54.500000000000007 2980.1199502011564 45.500000000000007 334.06055530885368 6.5000000000000009 4.5000000000000009 3273.8730005139219 29.500000000000004 141.50000000000003 99.500000000000014 1517.5000000000002 2979.7874015388993 325.50000000000006 230.50000000000003 152129.50000000003
decision_type=2 2 2 2 2 2 2 2 2 2 2 2 2 2 2 2 2 2 2 2 2 2 2 2 2 2 2 2 2 2
left_child=2 4 22 9 5 8 -7 -5 28 -3 11 12 19 18 -15 29 -9 -6 -14 23 -17 -12 -1 -8 -11 -26 -24 -23 -2 -13
right_child=1 3 -4 7 17 6 10 16 -10 24 21 15 13 14 -16 20 -18 -19 -20 -21 -22 27 26 -25 25 -27 -28 -29 -30 -31
leaf_value=0.040231487444842319 0.037779337700693701 0.10867339353387595 0.15185042424119638 0.099742462660795839 0.074932690214843792 0.0021367780922597469 0.056633039128720732 -0.0089919307516689289 0.12057439856026951 -0.044214486497620886 0.15044348817181927 0.14488346643231551 0.032468825917662432 0.028450981050643989 0.11271727072167691 0.036814859387387738 0.097576950213007704 0.15352773259896488 -0.05717270036049376 0.15478759770123174 0.12147819783304468 0.13407286802375704 -0.051938652172492106 0.12428456229615235 0.030362704435080514 -0.034114145857242983 -0.032288081994703142 0.063313924119183324 -0.040686793152048734 0.22609249187989164
leaf_weight=1.568971388041972 1.9962917342782001 1.6834686771035183 3.0596573650836936 9.7122463285923004 4.1585131585598019 8.3133451193571073 4.9866031780838984 11.431659676134585 3.159240096807479 24.587390191853046 12.203471831977369 3.1062506660819045 9.8138745874166506 7.3106236606836328 12.107576757669449 3.4838812872767431 2.205051802098752 16.943223401904106 2.5825151577591887 7.0916803404688826 6.0741473063826561 3.6997515186667433 226.63364727795124 6.1761290058493614 6.1259093433618572 9.9492552205920202 27.811986319720745 3.8048916161060333 6.4648421183228493 2.5993531569838524
leaf_count=18 19 13 22 71 22 82 36 133 18 354 62 22 85 59 67 25 17 84 24 38 36 20 3534 34 73 144 420 21 78 19
internal_value=0 0.0600488 -0.0468642 0.000357884 0.0911521 0.081727 0.0898294 0.0463015 0.0166353 -0.0249748 0.098402 0.0887046 0.0777214 0.0548089 0.0809924 0.124733 0.00824022 0.138039 0.013794 0.117654 0.0906186 0.130549 -0.0492391 0.0940633 -0.0305079 -0.00954337 -0.0497908 0.0981977 -0.0221738 0.181881
internal_weight=0 191.771 259.074 65.695 126.076 104.974 93.3541 23.349 11.6204 42.346 85.0408 65.3326 50.069 31.8146 19.4182 15.2636 13.6367 21.1017 12.3964 18.2544 9.55803 19.7081 256.015 11.1627 40.6626 16.0752 254.446 7.50464 8.46113 5.7056
internal_count=5650 1656 3994 805 851 745 630 221 115 584 548 445 343 235 126 102 150 106 109 108 61 103 3972 70 571 217 3954 41 97 41
is_linear=0
shrinkage=0.05


Tree=7
num_leaves=31
num_cat=0
split_feature=9 9 11 20 11 6 5 15 9 13 5 4 9 14 15 7 10 6 6 10 5 6 6 8 19 1 15 5 6 1
split_gain=456.703 119.473 47.611 42.8584 32.0368 24.7909 23.2964 17.1267 16.9384 16.1694 15.506 11.864 8.89096 11.6883 10.4623 8.73249 5.46176 5.26272 6.23768 5.05717 4.808 4.56785 7.61034 6.10889 4.47635 4.27931 3.89072 3.87439 3.14342 2.60248
threshold=1.0000000180025095e-35 562.50000000000011 50.000000000000007 2.5000000000000004 50.000000000000007 281.50000000000006 219.50000000000003 2061.3838342706908 29.500000000000004 4.5000000000000009 237.50000000000003 526.50000000000011 114.00000000000001 541.50000000000011 307.8759003870133 4836.4566837762386 15729.000000000002 288.50000000000006 325.50000000000006 11188.500000000002 29.500000000000004 323.50000000000006 406.50000000000006 1.0000000180025095e-35 1.0000000180025095e-35 1228.0000000000002 2979.7874015388993 278.50000000000006 324.50000000000006 3316.5000000000005
decision_type=2 2 2 2 2 2 2 2 2 2 2 2 2 2 2 2 2 2 2 2 2 2 2 2 2 2 2 2 2 2
left_child=3 4 -3 20 -2 15 21 8 -7 29 -8 -11 13 -13 -14 24 17 -12 -19 28 -1 -4 23 -23 -6 -24 -22 -18 -9 -10
right_child=1 2 6 -5 5 7 10 19 9 11 16 12 14 -15 -16 -17 27 18 -20 -21 26 22 25 -25 -26 -27 -28 -29 -30 -31
leaf_value=0.036973785367054528 0.13097251583810701 0.13718309158648012 -0.049674720076035302 0.13073340402943343 0.037078853381003134 0.18326401542552731 0.10395374697112461 0.15348305806640983 -0.039996417477509191 0.15306378250830327 -0.033117234490291726 0.026376652133145724 0.048947584681816807 0.12147690283414264 0.10512951796998832 0.091238439779504965 0.04381860803303702 0.11538613221569892 0.013186254052600297 0.073240728932384869 -0.05167011129082321 -0.016111361170352344 0.032347247505607489 0.095594607780052188 -0.047781612662792135 -0.054028752430093065 -0.031558937909617203 -0.046093298440555763 0.10847963951794518 0.01804974897905421
leaf_weight=1.6204553321003903 27.542022570967674 5.7889715284109107 23.665290087461472 3.3672861307859412 2.0794575512409192 3.0105557069182387 5.2440630644559869 8.4003765285015124 3.0738833248615247 4.1036119833588591 2.2637238726019842 20.039280861616138 14.297911271452902 3.8519918620586386 19.709536798298359 1.9541828259825695 1.5157991126179702 2.5734022259712219 3.5562129095196724 4.6395301371812812 216.67281071841717 2.5915753319859496 1.7302714139223088 2.3191760703921318 6.149966798722744 8.3723957762122136 27.051360934972763 5.7173796370625496 7.2109337151050559 5.1935548260807991
leaf_count=18 118 25 359 22 22 18 28 41 33 24 28 156 102 29 110 13 19 21 36 26 3534 35 25 29 75 125 420 75 36 48
internal_value=0 0.0555366 0.000291342 -0.0464356 0.0830371 0.0703076 -0.0130163 0.0783738 0.0671263 0.0621506 0.0295577 0.0709088 0.0650861 0.0417097 0.0815087 -0.00377615 0.00459137 0.0320325 0.0560929 0.119074 -0.0488672 -0.0359888 -0.014416 0.0366435 -0.0263386 -0.0392352 -0.0494379 -0.0272512 0.132696 -0.00353217
internal_weight=0 196.595 65.3383 248.712 131.257 103.715 59.5493 93.5312 73.2803 70.2698 20.8706 62.0023 57.8987 23.8913 34.0074 10.1836 15.6265 8.39334 6.12962 20.2508 245.345 38.6787 15.0134 4.91075 8.22942 10.1027 243.724 7.23318 15.6113 8.26744
internal_count=5650 1656 805 3994 851 733 780 623 520 502 207 421 397 185 212 110 179 85 57 103 3972 573 214 64 97 150 3954 94 77 81
is_linear=0
shrinkage=0.05


Tree=8
num_leaves=31
num_cat=0
split_feature=9 9 20 14 20 20 7 6 13 5 5 4 15 4 7 4 4 5 15 9 0 1 5 15 6 6 0 7 0 6
split_gain=416.055 101.351 38.1808 25.0804 21.4349 17.6089 16.0679 19.1663 14.7426 13.9745 12.3586 7.05037 6.97428 9.96445 11.2143 6.9372 12.3385 6.71846 6.52959 6.28409 5.3718 6.6119 4.58448 3.9559 3.20706 3.17971 3.08471 3.07099 3.68207 2.97788
threshold=1.0000000180025095e-35 562.50000000000011 2.5000000000000004 69.000000000000014 1.5000000000000002 1.5000000000000002 1048.1417709466441 298.50000000000006 4.5000000000000009 221.50000000000003 237.50000000000003 526.50000000000011 171.7306354923164 1384.5000000000002 265.24490161539455 1620.5000000000002 2020.5000000000002 215.50000000000003 2542.8421736154223 45.500000000000007 214007.00000000003 4662.5000000000009 29.500000000000004 2979.7874015388993 350.00000000000006 324.50000000000006 95150.000000000015 2338.9906455931055 134048.00000000003 352.50000000000006
decision_type=2 2 2 2 2 2 2 2 2 2 2 2 2 2 2 2 2 2 2 2 2 2 2 2 2 2 2 2 2 2
left_child=2 5 22 -3 9 6 7 -2 29 27 -11 -10 13 -13 -15 24 -17 -6 26 -7 21 -14 -1 -24 25 -8 -12 -5 -29 -9
right_child=1 3 -4 4 17 19 15 8 11 10 18 12 20 14 -16 16 -18 -19 -20 -21 -22 -23 23 -25 -26 -27 -28 28 -30 -31
leaf_value=0.034080232127579914 -0.032100669522696877 0.12024751267419076 0.11477110978937786 -0.041495244572271529 0.034170182412998587 0.062707510964328125 0.10627741318893619 -0.055931817252326037 0.12299431321821495 0.082689413938113188 0.028262790410442482 -0.012471674558291269 0.061482294075286853 0.11495956514490453 0.0036156807111916386 0.0081452644301007512 0.091397307755038057 0.14302644003679535 0.068775269948262677 0.12907651750311272 0.019894334590165201 0.1129425540833134 -0.051408032390345595 -0.030830572183141555 0.13202016038011441 0.057904197560773578 -0.035265930941569462 0.062225251817283216 -0.03413594249898444 0.014497389660658827
leaf_weight=1.6688293367624272 6.2008818611502639 4.0770159400999537 3.6361761987209311 31.302848860621452 3.073176532983779 4.419630408287051 14.434372715651994 2.1868434846401206 5.5815165415406218 5.1876860558986673 2.3917796686291686 6.2401486337184897 13.018090717494493 5.4948601946234685 3.8429691642522812 6.1040975004434612 16.428934976458549 2.6308620050549507 2.3464401513338098 18.478237375617027 3.4847950413823119 11.991928800940512 207.12985057756305 26.324591428041458 8.4066553264856321 4.442805901169776 9.5017542988061887 1.6510365307331074 2.4811270199716091 4.7846460491418839
leaf_count=18 81 25 22 489 25 22 68 24 28 26 31 50 90 37 31 43 85 18 21 84 24 78 3534 420 39 20 113 21 36 47
internal_value=0 0.0517249 -0.0460109 0.000209146 -0.00787117 0.0762943 0.0681689 0.0513533 0.0604921 -0.0174622 0.0166183 0.0700515 0.0633467 0.0364461 0.0691362 0.089376 0.0688447 0.0843777 -0.00745175 0.116266 0.0780531 0.0861567 -0.0484974 -0.0490877 0.106332 0.0948926 -0.0224904 -0.0361473 0.00436589 -0.00759511
internal_weight=0 200.185 238.759 64.6437 60.5667 135.541 112.644 62.8267 56.6258 54.8627 19.4277 49.6543 44.0728 15.578 9.33783 49.8169 22.533 5.70404 14.24 22.8979 28.4948 25.01 235.123 233.454 27.2838 18.8772 11.8935 35.435 4.13216 6.97149
internal_count=5650 1656 3994 805 780 851 745 490 409 737 191 338 310 118 68 255 128 43 165 106 192 168 3972 3954 127 88 144 546 57 71
is_linear=0
shrinkage=0.05


Tree=9
num_leaves=31
num_cat=0
split_feature=9 9 11 20 11 10 6 5 15 9 20 13 7 4 7 7 20 10 5 10 15 15 4 10 4 3 15 1 5 7
split_gain=379.881 86.6948 38.7959 34.4179 28.0119 20.0134 18.3592 16.1062 13.0097 12.6605 11.7326 15.6711 9.9201 7.54696 7.80599 6.77528 5.09076 4.74615 4.38075 4.30206 4.02142 3.68543 5.82837 3.84214 3.44016 3.15704 2.73849 2.71321 2.05994 2.05069
threshold=1.0000000180025095e-35 562.50000000000011 50.000000000000007 2.5000000000000004 50.000000000000007 13128.500000000002 281.50000000000006 131.50000000000003 2061.3838342706908 29.500000000000004 1.5000000000000002 4.5000000000000009 1289.7828838603637 526.50000000000011 823.81504308254341 4836.4566837762386 1.5000000000000002 8065.0000000000009 29.500000000000004 11188.500000000002 2979.7874015388993 954.56692351352262 2082.5000000000005 5083.0000000000009 1739.5000000000002 3.5000000000000004 437.59311215372344 5989.5000000000009 153.50000000000003 1661.9091990228519
decision_type=2 2 2 2 2 2 2 2 2 2 2 2 2 2 2 2 2 2 2 2 2 2 2 2 2 2 2 2 2 2
left_child=3 4 -3 18 -2 7 15 29 9 -8 11 25 21 -13 -15 26 -7 -14 -1 27 -20 22 23 -9 -12 -11 28 -10 -6 -4
right_child=1 2 5 -5 6 16 8 12 19 10 24 13 17 14 -16 -17 -18 -19 20 -21 -22 -23 -24 -25 -26 -27 -28 -29 -30 -31
leaf_value=0.031494749231356672 0.11433850226563312 0.12051689285002663 -0.047062584121173007 0.10222089602525462 0.037533676753503879 -0.045141509003212066 0.1503336335775958 0.07881985173796642 0.12429904300572321 0.012299231410341527 0.069598922357459361 0.1204960994759081 0.053914337435925302 0.030518295400856141 0.070151264237536273 0.073557236390454431 0.034036847223548425 0.14219039279837423 -0.051151608356651196 0.058978925635557677 -0.030103333413370501 0.07253750278936906 -0.054739471851958876 0.00053580034157067258 0.12135625831241788 -0.055811623549503392 -0.056568782557369683 0.079936617246574318 -0.032428548509975237 0.020729524462600343
leaf_weight=1.7143099680542935 28.797046542167664 6.0609156638383856 7.3486133329570311 3.8718538284301749 2.0615186393260938 29.063035394996408 3.3994073495268813 2.5670531392097491 12.060969233512884 2.8983410224318495 6.4944871813058835 3.7122973799705496 3.0416271835565558 30.470730736851692 20.976552553474903 2.1686486080288878 2.1825149133801451 3.0489136800169945 197.99087028577924 5.0390374213457099 25.630353655666113 2.5951881520450106 2.8322732113301754 4.0246754363179207 6.3492234200239182 4.1194410622119904 3.8374405279755592 4.8256153464317313 2.1487910076975822 1.315175127238035
leaf_count=18 118 25 115 22 23 462 18 31 54 29 30 20 24 238 110 13 20 17 3534 26 420 23 38 34 29 46 46 23 28 16
internal_value=0 0.0482814 0.000146905 -0.045589 0.0704144 -0.0124274 0.058974 0.0192965 0.0654752 0.0559557 0.0516792 0.0426924 0.0461197 0.0516459 0.0466778 -0.00488091 -0.0396109 0.0981052 -0.0481288 0.0995232 -0.0487392 0.0197769 0.00524767 0.0310224 0.0951849 -0.0276819 -0.0260178 0.111622 0.00182747 -0.0367716
internal_weight=0 203.44 64.08 229.207 139.36 58.0191 110.563 26.7735 100.346 78.4205 75.0211 62.1774 18.1097 55.1596 51.4473 10.2164 31.2456 6.09054 225.336 21.9256 223.621 12.0192 9.424 6.59173 12.8437 7.01778 8.04775 16.8866 4.21031 8.66379
internal_count=5650 1656 805 3994 851 780 733 298 623 520 502 443 167 368 348 110 482 41 3972 103 3954 126 103 65 59 75 97 77 51 131
is_linear=0
shrinkage=0.05


Tree=10
num_leaves=31
num_cat=0
split_feature=9 9 20 5 20 7 6 5 5 14 5 5 15 0 13 15 6 7 7 15 9 4 0 0 10 7 20 4 17 15
split_gain=343.615 79.1792 38.1588 29.6172 16.2433 17.8871 15.2906 12.0721 10.1933 8.2312 7.74195 7.75433 7.6748 8.29843 7.34736 7.85713 12.7384 8.45033 10.5025 5.39064 5.38651 4.71183 4.60838 4.20917 5.22771 4.19642 4.12617 4.06765 3.84853 3.63212
threshold=1.0000000180025095e-35 562.50000000000011 3.5000000000000004 216.50000000000003 1.5000000000000002 1011.6455409955064 383.50000000000006 237.50000000000003 43.500000000000007 69.000000000000014 256.50000000000006 141.50000000000003 1631.4331082247982 110481.50000000001 4.5000000000000009 177.13584649977759 298.50000000000006 265.24490161539455 82.054538504647709 322.55288743622293 53.000000000000007 1620.5000000000002 73525.000000000015 112932.50000000001 1861.5000000000002 312.24645546499585 2.5000000000000004 2020.5000000000002 -417.6382555139017 523.68605439082683
decision_type=2 2 2 2 2 2 2 2 2 2 2 2 2 2 2 2 2 2 2 2 2 2 2 2 2 2 2 2 2 2
left_child=2 4 26 8 5 6 14 -5 -3 -9 11 -8 13 -11 -2 17 -17 18 -16 -13 -6 -7 29 -18 -25 -12 28 -23 -1 -10
right_child=1 3 -4 7 20 21 10 9 22 12 25 19 -14 -15 15 16 23 -19 -20 -21 -22 27 -24 24 -26 -27 -28 -29 -30 -31
leaf_value=0.052886322204426496 -0.035580582525519371 0.1030816239368926 0.18580613681639824 0.092585263831439349 0.051922028228221763 0.091756834268083148 0.049680413281781806 0.11457717819489216 -0.027207269131181308 0.056492142027762197 0.071704337875968208 0.16276818239457091 0.05951899537103518 -0.039106905792872841 -0.030964735575569342 -0.04162441248251858 0.090620831645243857 -0.049794350018290474 0.085283177673365143 0.08199485731613898 0.11342571679313579 0.026133094887274694 -0.03889472815483537 0.098309459706649546 0.024263657887634432 3.3335711457179925e-05 0.018381441088811051 0.073795090456476989 -0.04865494256230915 0.082397833547406527
leaf_weight=0.93721945211291213 4.940166611224412 1.4117108583450306 1.7668794393539418 7.6408959776163128 4.3383554816246059 30.009722724556923 5.451325178146365 1.9778445810079635 1.5745044536888593 3.0438874773681155 3.9515180960297567 4.5825512930750829 4.8933536745607844 8.9286983460187894 3.6078258603811246 3.4851510822773006 7.8120656460523632 5.3765490241348743 4.2103933915495872 3.7607534602284431 19.84121710062027 5.9334119632840183 34.852961875498295 3.232062615454196 9.0812668055295926 4.2272062748670578 2.3513333946466437 18.231024697422981 214.67072186991572 1.4537351727485655
leaf_count=15 56 12 9 36 21 131 36 10 23 37 26 24 40 108 31 48 46 45 29 21 85 41 557 19 63 29 13 90 3952 20
internal_value=0 0.0440611 -0.0456191 -0.00129297 0.0650594 0.0574029 0.0394449 0.0395731 -0.028838 0.0180773 0.0732051 0.0960577 0.00676093 -0.014802 0.0216747 0.0293597 0.0466298 -0.00154314 0.031639 0.12636 0.102391 0.0785248 -0.0337542 0.061913 0.0436996 0.0346609 -0.0474951 0.062092 -0.0482136 0.0254097
internal_weight=0 207.85 219.726 65.7776 142.073 117.893 63.7188 26.4847 39.2929 18.8438 21.9734 13.7946 16.8659 11.9726 41.7455 36.8053 23.6105 13.1948 7.81822 8.3433 24.1796 54.1742 37.8812 20.1254 12.3133 8.17872 217.959 24.1644 215.608 3.02824
internal_count=5673 1684 3989 843 841 735 473 231 612 195 136 81 185 145 337 281 176 105 60 45 106 262 600 128 82 55 3980 131 3967 43
is_linear=0
shrinkage=0.05


Tree=11
num_leaves=31
num_cat=0
split_feature=9 9 20 11 11 20 7 10 20 7 10 13 5 10 19 4 13 15 4 15 4 20 0 17 20 15 4 0 15 7
split_gain=315.885 68.9645 33.4133 30.1052 27.5688 26.8136 19.3878 25.7674 17.3995 19.1443 9.73631 7.66262 6.09515 8.96403 7.53863 6.2481 5.96035 6.4119 5.47886 4.68494 7.70537 3.98394 3.65527 3.61837 3.46504 3.47138 13.417 3.20614 2.99254 2.85245
threshold=1.0000000180025095e-35 562.50000000000011 3.5000000000000004 50.000000000000007 50.000000000000007 2.5000000000000004 1289.7828838603637 11309.000000000002 1.5000000000000002 1031.603094153809 10145.000000000002 4.5000000000000009 279.50000000000006 7727.0000000000009 1.0000000180025095e-35 2752.5000000000005 504.00000000000006 2979.7874015388993 1648.5000000000002 368.083319559784 2427.0000000000005 2.5000000000000004 203640.50000000003 -417.6382555139017 1.5000000000000002 859.03760009071891 2693.5000000000005 160032.50000000003 226.90883361633499 3974.4310677586495
decision_type=2 2 2 2 2 2 2 2 2 2 2 2 2 2 2 2 2 2 2 2 2 2 2 2 2 2 2 2 2 2
left_child=2 4 21 -3 -2 6 24 10 9 11 27 -6 13 14 -13 22 17 -15 29 -20 -21 23 -14 -1 25 -5 -27 -8 -16 -11
right_child=1 3 -4 5 8 -7 7 -9 -10 18 -12 12 15 16 28 -17 -18 -19 19 20 -22 -23 -24 -25 -26 26 -28 -29 -30 -31
leaf_value=0.047961364927998046 0.10420245447299448 0.10853608748635574 0.16301422787513584 -0.04763195798930478 -0.031607045216886918 0.17703098102873008 0.074384292306464067 -0.040266499367021924 0.093204424056051796 0.08971751708241997 0.14385486440155526 0.12872159501302621 -0.031600130886008014 -0.00044155695041923058 0.080632436390772722 0.062902982662146459 0.087567625304260266 0.083888724586437771 0.086532337620256985 -0.01379673669002379 0.061260397494225377 0.017297567834415321 0.036478471244425534 -0.048313757296199605 0.012667724255494506 -0.039763835364138023 0.13662109543419745 -0.0096902600558986269 0.0057024997550929992 0.049183087979151427
leaf_weight=0.9805973656475534 29.095639631152153 5.694222778081893 1.9090976417064656 30.512907512485981 6.208830412477254 1.821912609040736 2.5937891453504545 7.2785453870892516 19.198243081569672 19.448782265186313 4.0552129149436951 4.3584742695093173 8.8494125306606275 15.933021664619451 2.4688488617539406 3.1734395623207083 2.9890802986919871 2.6254503056406966 5.0397189408540752 5.81008256971836 8.3101616874337179 2.3731553107500067 2.536923896521329 205.60697481781244 3.3921164795756331 6.4018297195434561 1.2964719608426092 2.014758326113224 2.8950412943959236 5.5870041102170935
leaf_count=15 117 23 9 492 71 11 23 114 84 84 19 26 74 133 19 22 22 15 26 40 41 13 18 3952 28 97 17 19 23 26
internal_value=0 0.0414626 -0.0452144 -0.00128489 0.0607061 -0.0118183 -0.0177974 0.0290858 0.0497425 0.0410721 0.0873496 0.0205202 0.0275822 0.0400246 0.0798785 0.000859857 0.0220423 0.0114886 0.0652711 0.0451474 0.0303765 -0.0471168 -0.0164319 -0.0478568 -0.0357629 -0.0400622 -0.0100588 0.0376287 0.0401907 0.0806718
internal_weight=0 209.59 210.87 65.0618 144.528 59.3675 57.5456 15.9423 115.433 96.2343 8.66376 52.0385 45.8297 31.2699 9.72236 14.5598 21.5476 18.5585 44.1957 19.16 14.1202 208.961 11.3863 206.588 41.6033 38.2112 7.6983 4.60855 5.36389 25.0358
internal_count=5673 1684 3989 843 841 820 809 175 724 640 61 423 352 238 68 114 170 148 217 107 81 3980 92 3967 634 606 114 42 42 110
is_linear=0
shrinkage=0.05


Tree=12
num_leaves=31
num_cat=0
split_feature=9 11 9 20 20 10 15 20 13 6 5 18 15 6 14 14 3 10 9 15 3 5 20 4 17 10 6 1 0 4
split_gain=291.294 60.4816 52.4847 29.7649 22.6898 17.0794 19.9428 15.1507 11.0664 10.3435 7.91601 9.80146 6.97582 9.6077 8.82863 9.91512 11.9201 6.29515 5.97901 5.18534 4.89152 3.94486 3.84918 3.53775 3.41539 3.39759 2.77575 2.72125 2.7131 7.35426
threshold=1.0000000180025095e-35 50.000000000000007 562.50000000000011 3.5000000000000004 2.5000000000000004 13128.500000000002 954.56692351352262 1.5000000000000002 4.5000000000000009 281.50000000000006 226.50000000000003 1.0000000180025095e-35 1279.5779960928282 324.50000000000006 69.000000000000014 78.500000000000014 4.5000000000000009 16116.000000000002 123.50000000000001 88.157675701465735 6.5000000000000009 141.50000000000003 2.5000000000000004 2075.5000000000005 -417.6382555139017 13038.000000000002 238.00000000000003 4571.5000000000009 125432.50000000001 1438.5000000000002
decision_type=2 2 2 2 2 2 2 2 2 2 2 2 2 2 2 2 2 2 2 2 2 2 2 2 2 2 2 2 2 2
left_child=3 -2 7 22 5 6 23 8 27 25 11 -8 14 20 21 19 -17 -7 -15 -16 -14 -11 24 28 -1 26 -10 -3 29 -4
right_child=1 2 4 -5 -6 17 10 -9 9 12 -12 -13 13 18 15 16 -18 -19 -20 -21 -22 -23 -24 -25 -26 -27 -28 -29 -30 -31
leaf_value=0.043698325089240958 0.099334159369309227 -0.044560420417791416 -0.02427998262806836 0.14620817342920997 0.15540737295027174 -0.048291602732259728 -0.054456514010376204 0.086677288975412894 0.055437704056924199 0.047685282296643157 0.097609278518729387 0.10827459142689216 0.12084175738167383 -0.0011986398256070376 -0.034737820872172497 -0.016865739072649117 0.094458205458772815 0.067077299407338115 0.064421765476553469 0.019747087361267211 0.065778675554929056 0.10325064122801016 0.016288577692387476 -0.054450389501819775 -0.047972128716568793 -0.057344008364719659 -0.020395778433965124 0.015384407061705333 -0.026643487560337936 0.11609184329357454
leaf_weight=1.0213359668850888 34.902327224612236 4.4217026829719535 2.604102257639175 2.0189745128154746 1.9674621075391758 28.375795826315883 2.4049902856349927 19.600629821419716 2.1293553896248332 6.9314731508493406 6.7324285209178925 1.5039615705609324 8.2849644720554405 5.8305982574820492 5.4969100430607822 3.3373247385025016 8.6036342456936818 1.2338235825300206 8.5786995142698288 21.240773856639862 7.8595381230115882 5.9242687150835991 2.3936083912849417 5.8625700287520877 196.93727212771773 2.7011321783065796 2.7848788052797318 3.3108368664979935 6.1563915312290192 1.4541010484099386
leaf_count=15 140 51 26 9 11 487 34 84 18 43 39 17 37 31 42 23 49 19 36 145 34 31 13 91 3952 34 34 32 77 19
internal_value=0 0.039226 0.0272607 -0.0448122 -0.0115006 -0.0173305 0.0116532 0.0465676 0.0384989 0.0434462 0.0647492 0.00815396 0.0486176 0.0675473 0.0373945 0.0254634 0.0633448 -0.0434842 0.037869 0.00854572 0.0940357 0.0732913 -0.0467371 -0.0234908 -0.0474992 -0.0122971 0.0124631 -0.0188939 -0.00572182 0.0260169
internal_weight=0 210.235 175.332 202.371 58.2956 56.3282 26.7185 117.037 97.4361 89.7036 10.6414 3.90895 82.0882 30.5538 51.5344 38.6786 11.941 29.6096 14.4093 26.7377 16.1445 12.8557 200.352 16.0772 197.959 7.61537 4.91423 7.73254 10.2146 4.0582
internal_count=5673 1684 1544 3989 820 809 303 724 640 557 90 51 471 138 333 259 72 506 67 187 71 74 3980 213 3967 86 52 83 122 45
is_linear=0
shrinkage=0.05


Tree=13
num_leaves=31
num_cat=0
split_feature=9 11 9 20 10 7 20 7 21 10 13 10 5 10 19 4 15 4 13 15 0 20 1 0 17 20 4 1 15 15
split_gain=268.989 54.9692 46.5395 26.8349 19.692 16.9987 13.3306 15.6337 11.8883 8.63327 6.2047 5.71706 5.10917 7.10728 6.08972 5.27035 4.76457 4.73072 4.55186 4.85751 4.14269 3.7212 3.43151 3.2436 3.23461 2.9787 2.9395 2.69636 4.17796 2.63835
threshold=1.0000000180025095e-35 50.000000000000007 562.50000000000011 3.5000000000000004 13128.500000000002 1289.7828838603637 1.5000000000000002 1031.603094153809 1.0000000180025095e-35 16116.000000000002 4.5000000000000009 10145.000000000002 279.50000000000006 5931.5000000000009 1.0000000180025095e-35 2752.5000000000005 954.56692351352262 1648.5000000000002 504.00000000000006 2696.5574624312039 110481.50000000001 2.5000000000000004 2525.5000000000005 203640.50000000003 -417.6382555139017 1.5000000000000002 2752.5000000000005 4322.5000000000009 534.0325777252848 3127.5407903761761
decision_type=2 2 2 2 2 2 2 2 2 2 2 2 2 2 2 2 2 2 2 2 2 2 2 2 2 2 2 2 2 2
left_child=3 -2 6 21 5 8 7 10 -4 25 -3 -7 13 14 -12 23 -10 -9 19 -15 -19 24 -22 -14 -1 -6 -24 -8 -29 -26
right_child=1 2 4 -5 9 11 27 17 16 -11 12 -13 15 18 -16 -17 -18 20 -20 -21 22 -23 26 -25 29 -27 -28 28 -30 -31
leaf_value=0.039973968780980335 0.094557706445970627 -0.030320927045237152 0.10646257523221835 0.13328350432556832 -0.051183165950065626 0.033114331691671613 0.098626547166807535 0.071927757881330809 -0.037162917765283694 0.076862486180589662 0.11489892730475267 0.10980333586581081 -0.031379040100297913 -4.0753921603205867e-05 0.034462313725161522 0.054535447483185555 0.029392516002122917 0.0018646714979704661 0.075068355556146535 0.066958515525775378 0.091816256677168057 0.015347897073909456 0.015326490523260534 0.031849642360736077 -0.049666677251607227 0.0090326009469806623 0.069881606594409867 0.027791861459967451 0.094067708444608961 -0.030467739287836124
leaf_weight=1.0596273057162751 34.83317232131958 5.9547541737556449 1.9711517691612304 2.1016747504472724 25.422815352678306 4.7767752297222597 10.394177794456484 25.592521414160728 13.074039719998838 1.4995371289551247 4.3479848727583867 4.9471069015562534 8.767354488372801 16.524889927357442 5.1284642592072487 3.3555290177464476 3.3853170052170745 5.3676410093903568 3.2162909954786292 3.2348682954907408 4.1298841610550872 2.4127889871597281 5.9964506030082685 2.6388273760676375 168.62819793447852 2.2342300638556472 4.1975114420056343 4.6351338475942594 4.8829117268323898 20.018814597278833
leaf_count=15 140 71 13 9 470 42 43 110 190 20 24 26 74 136 39 22 39 31 22 17 20 13 37 18 3569 20 19 21 20 383
internal_value=0 0.0371786 0.0258014 -0.0444114 -0.0111829 0.0186428 0.0437087 0.0361625 -0.0095772 -0.0399835 0.0177747 0.0721305 0.0238407 0.0349338 0.0713682 -0.000546697 -0.023474 0.0577521 0.0199064 0.0109277 0.0393283 -0.0463552 0.0533672 -0.016751 -0.04714 -0.0463187 0.0377903 0.0810198 0.0617924 -0.0476293
internal_weight=0 210.509 175.676 194.221 57.311 28.1544 118.365 98.453 18.4305 29.1566 53.169 9.72388 47.2142 32.4525 9.47645 14.7617 16.4594 45.284 22.976 19.7598 19.6915 192.119 14.3238 11.4062 189.707 27.657 10.194 19.9122 9.51805 188.647
internal_count=5673 1684 1544 3989 820 310 724 640 242 510 423 68 352 238 63 114 229 217 175 153 107 3980 76 92 3967 490 56 84 41 3952
is_linear=0
shrinkage=0.05


Tree=14
num_leaves=31
num_cat=0
split_feature=9 11 9 20 10 7 20 7 10 21 6 15 15 6 7 7 7 10 15 7 9 15 0 6 7 15 22 9 15 6
split_gain=248.809 50.3073 41.3787 24.4056 18.3444 14.9208 11.8985 13.9032 11.5405 10.3854 6.0501 12.3796 6.55662 5.77037 4.57463 4.54687 6.76958 4.47428 4.41331 4.30301 4.58312 6.70736 7.66876 3.92784 3.74878 3.69065 3.5824 3.33203 3.49814 2.96406
threshold=1.0000000180025095e-35 50.000000000000007 562.50000000000011 3.5000000000000004 13128.500000000002 1289.7828838603637 1.5000000000000002 1031.603094153809 16119.500000000002 1.0000000180025095e-35 388.50000000000006 368.083319559784 722.9556749700721 322.50000000000006 334.06055530885368 276.78439669114613 119.785930006914 10933.000000000002 954.56692351352262 5290.2414891503686 92.000000000000014 523.68605439082683 110481.50000000001 323.50000000000006 30532.626211968582 130.8674269071216 1.5000000000000002 78.500000000000014 197.60845449662614 750.00000000000011
decision_type=2 2 2 2 2 2 2 2 2 2 2 2 2 2 2 2 2 2 2 2 2 2 2 2 2 2 2 2 2 2
left_child=3 -2 6 24 5 9 7 10 -6 -4 12 14 15 -7 29 16 -3 -14 -11 20 21 -9 -23 -24 26 -18 -1 28 -17 -12
right_child=1 2 4 -5 8 13 -8 19 -10 18 11 -13 17 -15 -16 27 25 -19 -20 -21 -22 22 23 -25 -26 -27 -28 -29 -30 -31
leaf_value=-0.047219912160433967 0.090422158456897064 -0.020056342794123213 0.09622264695908582 0.12302815846609445 -0.046039650645133878 0.012250594732962063 0.076210023820027631 0.094718402374979485 0.11541152918649447 -0.036396272734212747 0.12424429894579703 -0.027771100447314703 0.071864790368251621 0.093400265475931721 0.021343958042088183 -0.042398932378382999 0.089786146370760309 0.001879411439805965 0.027331086467651047 0.02123071437931031 0.074587685616621976 -0.04976243601630316 0.086722736155299934 0.010964897035074275 0.022808185086536942 0.019180735498045318 0.049871826715037565 -0.051484071466356765 0.029056336068869398 0.061308197634393595
leaf_weight=181.33197372034192 34.610156282782555 7.7606464922428149 2.06915712356568 2.1613337844610205 26.983823653310541 3.2542744502425176 20.104764744639397 3.8104888424277297 1.1541764326393593 12.691753674298527 3.8964241668581945 4.2836765572428694 5.4785110875964147 6.7023865953087807 3.0441618412733078 3.0389588288962823 2.9650645740330219 3.9162669740617275 3.4567046053707591 8.1101286560296995 23.936838172376156 3.0206382125616056 3.1665442362427711 3.7220718637108803 1.9600308686494816 4.9252093136310577 0.95506037399172683 6.7173007167875767 3.9250038042664528 3.5986118763685226
leaf_count=3926 140 71 13 9 496 29 84 20 14 190 23 31 28 39 24 28 23 34 39 38 99 20 19 21 37 42 17 61 33 25
internal_value=0 0.0353228 0.0244712 -0.0440122 -0.010861 0.0176585 0.0411318 0.0340309 -0.0394172 -0.00924145 0.0167362 0.0439014 0.00633865 0.066877 0.0730328 -0.00530461 0.0131009 0.042691 -0.0227549 0.0542667 0.0613817 0.0383413 0.0166621 0.0457891 -0.0459717 0.0457134 -0.0467112 -0.0263599 -0.00212557 0.0940266
internal_weight=0 210.344 175.734 186.408 56.3123 28.1743 119.421 99.3165 28.138 18.2176 53.5498 14.8229 38.727 9.95666 10.5392 29.3322 15.6509 9.39478 16.1485 45.7667 37.6566 13.7197 9.90925 6.88862 184.247 7.89027 182.287 13.6813 6.96396 7.49504
internal_count=5673 1684 1544 3989 820 310 724 640 510 242 423 103 320 68 72 258 136 62 229 217 179 80 60 40 3980 65 3943 122 61 48
is_linear=0
shrinkage=0.05


Tree=15
num_leaves=31
num_cat=0
split_feature=9 11 10 20 10 20 7 8 5 6 6 6 6 6 14 7 7 9 7 10 10 10 7 5 13 7 17 5 7 9
split_gain=233.1 42.8901 42.9747 27.0896 14.865 14.6724 20.3462 10.4957 7.99955 6.92753 10.4171 6.48305 9.20021 5.10001 5.32788 4.37562 6.93479 4.24403 4.58287 4.06741 3.7419 2.96671 4.87529 2.75882 2.46272 2.4617 2.40942 2.33501 2.30719 1.95787
threshold=1.0000000180025095e-35 50.000000000000007 13128.500000000002 2.5000000000000004 17127.000000000004 1.5000000000000002 1048.1417709466441 1.0000000180025095e-35 279.50000000000006 323.50000000000006 329.00000000000006 281.50000000000006 238.00000000000003 302.00000000000006 69.000000000000014 409.28074680749904 523.096513372495 123.50000000000001 3444.3398350555958 11059.000000000002 4553.0000000000009 15653.500000000002 268.98906256826166 278.50000000000006 504.00000000000006 257.30803764131809 -417.6382555139017 25.500000000000004 233.65094861125934 54.500000000000007
decision_type=2 2 2 2 2 2 2 2 2 2 2 2 2 2 2 2 2 2 2 2 2 2 2 2 2 2 2 2 2 2
left_child=3 -2 5 26 9 6 7 28 -6 29 -11 12 -8 -9 -15 23 -17 19 20 -13 -19 22 -12 -16 25 -7 -1 -28 -3 -4
right_child=1 2 4 -5 8 24 11 13 -10 10 21 17 -14 14 15 16 -18 18 -20 -21 -22 -23 -24 -25 -26 -27 27 -29 -30 -31
leaf_value=0.020482253347091185 0.084353531227446696 -0.0038948699146986593 0.011695024337858032 0.076084943294398633 0.087707293487765028 0.035094179875774033 0.072776771429243076 -0.024877033947908911 -0.0082003653204650861 0.11343196210327192 0.043581466219191504 0.055841909048146211 -0.057290741930601297 0.086113258233818324 0.022333476265166359 0.092828674920927196 0.017731982519283821 0.034748040628818019 0.030064260197233975 -0.0060395679711878845 0.085835872044932385 -0.03408294149502647 -0.045047137850437083 -0.013809999356866049 0.1100603598504608 0.079265012193809353 0.01806173593019126 -0.047454122165311516 -0.050271532504972939 -0.052419254376894479
leaf_weight=1.3355483599007119 35.508939623832703 4.390916205942629 1.2673989683389688 4.6329046487808219 4.6928716227412206 4.1875957250595155 2.5349277704954138 5.1765626370906821 4.0510328784584999 1.6435190141201044 3.9263994991779354 7.8270477056503278 2.9322038292884827 3.5753070414066306 13.895522106438877 4.8033949434757224 8.5395499318838102 4.2214339934289482 6.0297006592154494 4.018924206495285 23.745671354234219 10.976606801152228 2.5654811710119247 8.5148886628448945 4.4755597934126845 12.783432409167288 1.3708632439374913 171.4767191298306 6.889797255396843 19.683749508112669
leaf_count=19 145 46 9 23 28 21 16 82 24 10 38 36 31 22 114 35 67 27 29 27 102 177 24 72 20 55 17 3922 82 354
internal_value=0 0.0341945 0.0241516 -0.0432437 -0.0157916 0.0393179 0.0317584 0.0108576 0.0432735 -0.0286828 -0.00691381 0.0544826 0.00301725 0.0217764 0.0279171 0.0220975 0.0447664 0.0606202 0.0696005 0.0348477 0.0781245 -0.0182365 0.00855694 0.00860068 0.0770668 0.0683659 -0.0464176 -0.0469345 -0.0322198 -0.0485408
internal_weight=0 212.858 177.349 178.816 48.8071 128.542 107.096 55.7859 8.7439 40.0632 19.112 51.3099 5.46713 44.5052 39.3287 35.7534 13.3429 45.8428 33.9968 11.846 27.9671 17.4685 6.49188 22.4104 21.4466 16.971 174.183 172.848 11.2807 20.9511
internal_count=5674 1693 1548 3981 664 884 788 520 52 612 249 268 47 392 310 288 102 221 158 63 129 239 62 186 96 76 3958 3939 128 363
is_linear=0
shrinkage=0.05


Tree=16
num_leaves=31
num_cat=0
split_feature=9 11 10 20 10 20 7 8 15 15 4 6 6 15 4 0 15 15 6 0 15 5 4 7 0 6 7 4 15 7
split_gain=215.791 39.7355 38.4927 25.064 13.5344 13.062 18.2658 9.50139 10.6857 8.47132 7.29675 6.7036 9.01424 6.03716 5.46394 5.46226 5.16426 5.51126 5.08516 4.99995 4.23215 3.87517 3.62096 3.39898 3.28457 3.11127 4.10642 2.98491 2.89298 3.13027
threshold=1.0000000180025095e-35 50.000000000000007 13128.500000000002 2.5000000000000004 17127.000000000004 1.5000000000000002 1048.1417709466441 1.0000000180025095e-35 2187.4187872488355 328.82679377651817 1620.5000000000002 323.50000000000006 329.00000000000006 137.64574473828276 2075.5000000000005 132322.00000000003 328.82679377651817 2696.5574624312039 322.50000000000006 185701.00000000003 62.809889100232674 221.50000000000003 2716.5000000000005 1803.7097031083524 75108.500000000015 367.00000000000006 3323.8296976083652 1622.5000000000002 50114.750518618072 703.93168141811236
decision_type=2 2 2 2 2 2 2 2 2 2 2 2 2 2 2 2 2 2 2 2 2 2 2 2 2 2 2 2 2 2
left_child=3 -2 5 28 11 6 7 -3 14 -6 25 -4 -13 15 18 -14 -12 19 20 23 -9 -20 -16 -18 -24 26 -8 -7 -1 -30
right_child=1 2 4 -5 9 27 10 8 -10 -11 16 12 13 -15 22 -17 17 -19 21 -21 -22 -23 24 -25 -26 -27 -28 -29 29 -31
leaf_value=-0.046860538083355094 0.081197275338711211 -0.031386454238042753 -0.048096157165289539 0.070332195705324396 0.085029382653955612 0.04896916740512533 0.071906406375355461 0.052498785844582764 0.094020297256415114 -0.012862234085289021 0.077394533954558919 0.10202896145924079 -0.017145795552974612 -0.035091059215231382 -0.041436060334093347 0.094145465345951501 0.0035831148499840836 0.051834231621233046 0.069944994180454828 0.040427500082422844 -0.027455869008666419 0.022774874313531927 0.068650967973719973 -0.067312902112073678 -0.01162480060873558 0.097156280978695414 0.023855913923320583 0.087203157327529035 -0.052562719756303528 0.059873181959425259
leaf_weight=164.49132297560573 35.056024745106697 11.011620033532379 20.110884495079517 4.7578452825546256 4.8382585793733579 8.2600554153323191 16.308965221047409 2.219815459102394 4.4455849155783644 4.0684363842010498 4.5472330972552326 1.733337059617045 2.4730964675545719 12.766667809337376 6.3971338830888254 1.9894392453134058 3.464859317988159 7.0729505941271773 6.6058304198086288 3.839171726256609 6.5053132027387619 12.773344680666922 1.8214069902896879 3.3015476725995541 4.241650216281414 6.9211259707808486 6.1130009591579428 13.363199345767496 1.159458048641681 1.3280988484621046
leaf_count=3907 145 128 363 23 29 38 72 22 23 23 24 10 30 184 79 25 29 37 43 23 79 91 11 22 44 33 28 58 25 26
internal_value=0 0.032559 0.0229364 -0.0428269 -0.0153072 0.0371371 0.0300103 0.0102443 0.0204292 0.0403141 0.051483 -0.027986 -0.00665796 -0.0175924 0.0123642 0.0324689 0.0298725 0.0176489 0.0245829 -0.00514952 -0.0071141 0.0388539 -0.0151955 -0.0310093 0.0124909 0.0678518 0.0588062 0.0725978 -0.0460512 0.00746646
internal_weight=0 212.25 177.194 171.737 47.9801 129.214 107.591 56.0217 45.0101 8.90669 51.5689 39.0734 18.9625 17.2292 40.5645 4.46254 22.2258 17.6785 28.1043 10.6056 8.72513 19.3792 12.4602 6.76641 6.06306 29.3431 22.422 21.6233 166.979 2.48756
internal_count=5674 1693 1548 3981 664 884 788 520 392 52 268 612 249 239 369 55 135 111 235 74 101 134 134 51 55 133 100 96 3958 51
is_linear=0
shrinkage=0.05


Tree=17
num_leaves=31
num_cat=0
split_feature=9 11 10 20 10 20 7 8 15 15 4 6 6 15 4 0 15 15 0 6 15 1 0 7 15 7 17 6 7 4
split_gain=199.889 36.9944 34.5399 23.2603 12.5899 11.6619 16.3427 8.61437 9.22278 7.33805 6.60975 6.06831 8.21378 6.32517 4.87732 4.52022 4.46201 4.88595 4.51898 4.44516 3.77423 3.70991 3.52971 3.22821 2.82235 2.79275 2.74574 2.65294 3.74843 2.6323
threshold=1.0000000180025095e-35 50.000000000000007 13128.500000000002 2.5000000000000004 16188.000000000002 1.5000000000000002 1048.1417709466441 1.0000000180025095e-35 2187.4187872488355 328.82679377651817 1620.5000000000002 323.50000000000006 329.00000000000006 137.64574473828276 2075.5000000000005 132322.00000000003 328.82679377651817 2696.5574624312039 185701.00000000003 322.50000000000006 62.809889100232674 5502.5000000000009 72457.500000000015 1803.7097031083524 50114.750518618072 703.93168141811236 -417.6382555139017 367.00000000000006 3323.8296976083652 1622.5000000000002
decision_type=2 2 2 2 2 2 2 2 2 2 2 2 2 2 2 2 2 2 2 2 2 2 2 2 2 2 2 2 2 2
left_child=3 -2 5 24 11 6 7 -3 14 -6 27 -4 -13 15 19 -14 -12 18 23 20 -9 -21 -16 -18 26 -26 -1 28 -8 -7
right_child=1 2 4 -5 9 29 10 8 -10 -11 16 12 13 -15 22 -17 17 -19 -20 21 -22 -23 -24 -25 25 -27 -28 -29 -30 -31
leaf_value=0.028522025914330059 0.078380119208204507 -0.030528962899771757 -0.049237644408244283 0.06528054690393878 0.068954462230236324 0.046342566250061459 0.068347125953441404 0.048077862270573819 0.08641749580392287 -0.013095556307318443 0.071674999626389721 0.092606526570025133 -0.016505072794362263 -0.03953230078649482 0.040815633873548911 0.083066313230022504 0.003397202234096371 0.048543487703867495 0.037837529344254578 0.01958157457303043 -0.026632856313940564 0.064457739590338611 -0.027613238935345803 -0.066291634838931454 -0.052431493830121238 0.053877953221794499 -0.047095280086851564 0.091025070382010964 0.02253070420393442 0.082149983561068368
leaf_weight=1.2097741253674019 34.513821646571159 10.76131623983383 18.36001244187355 4.866759940981864 6.0512181371450406 8.2909573465585726 16.300434641540058 2.3005415797233599 4.5908609107136717 4.9573881179094315 4.6614710241556194 1.8120352774858499 2.4414690285921123 11.468086913228033 2.3242318481206885 2.1378742903470993 3.4715740010142344 7.1721317768096915 3.895358394831419 12.510041970759632 6.3744057975709438 7.2887043021619311 9.9611103385686857 3.1876780800521374 1.1056012474000447 1.4001026935875414 156.39298599585891 7.0153315588831893 6.1479954794049254 13.472830474376677
leaf_count=18 145 128 355 23 38 38 72 22 23 29 24 10 30 177 18 25 29 37 23 88 79 46 116 22 25 26 3889 33 28 58
internal_value=0 0.0310269 0.021791 -0.0424045 -0.0148202 0.0351196 0.0283887 0.00968829 0.0192317 0.0320058 0.0486253 -0.0290526 -0.00830175 -0.0196961 0.0116642 0.02998 0.028146 0.0166995 -0.00493926 0.0230253 -0.00682004 0.0361023 -0.0146674 -0.0299617 -0.0456778 0.00697063 -0.0465148 0.0641866 0.0557993 0.0685091
internal_weight=0 211.469 176.955 164.975 47.2281 129.727 107.963 56.1112 45.3499 11.0086 51.852 36.2195 17.8595 16.0474 40.759 4.57934 22.3882 17.7267 10.5546 28.4737 8.67495 19.7987 12.2853 6.65925 160.108 2.5057 157.603 29.4638 22.4484 21.7638
internal_count=5674 1693 1548 3981 664 884 788 520 392 67 268 597 242 232 369 55 135 111 74 235 101 134 134 51 3958 51 3907 133 100 96
is_linear=0
shrinkage=0.05


Tree=18
num_leaves=31
num_cat=0
split_feature=10 11 10 6 6 20 11 14 20 7 7 15 6 6 0 8 5 10 15 15 15 7 7 7 0 15 5 1 4 6
split_gain=96.0199 43.2165 36.6319 25.3481 24.7604 17.6161 15.9186 15.4254 13.435 10.5494 13.8175 10.1811 13.5729 7.21069 7.11591 6.23038 4.69591 7.27175 5.22003 4.65196 4.56643 6.19319 3.93331 3.93257 3.91745 4.36543 3.95988 3.80959 3.80681 3.74857
threshold=15653.500000000002 50.000000000000007 16188.000000000002 322.50000000000006 448.00000000000006 2.5000000000000004 50.000000000000007 69.000000000000014 1.5000000000000002 409.28074680749904 3444.3398350555958 2696.5574624312039 302.00000000000006 388.50000000000006 51254.000000000007 1.0000000180025095e-35 221.50000000000003 9369.5000000000018 432.92436997370015 1418.6209903328947 392.61957317346395 1394.7983522483726 1048.1417709466441 2772.0258312652336 132718.00000000003 358.71883250660494 131.50000000000003 1971.5000000000002 748.50000000000011 406.50000000000006
decision_type=2 2 2 2 2 2 2 2 2 2 2 2 2 2 2 2 2 2 2 2 2 2 2 2 2 2 2 2 2 2
left_child=1 -1 5 7 8 6 -2 -3 9 13 15 16 -13 -5 -6 22 -9 -18 -19 -12 -4 -22 -11 24 -16 26 -26 -28 -27 -15
right_child=2 3 20 4 14 -7 -8 11 -10 10 19 12 -14 29 23 -17 17 18 -20 -21 21 -23 -24 -25 25 28 27 -29 -30 -31
leaf_value=0.075507581500185439 0.17064199961140311 0.05099588848346958 0.062749134228398618 -0.0081028929375736216 0.042879394569745287 0.07087111295986219 -0.046237869471083853 -0.036734099644024722 0.084585457246522347 -0.056795571570866045 0.02387092692166639 -0.034436308509997113 0.08825974303041334 0.10893439607893768 -0.048568334518082804 0.06673994300457331 -0.032253957260478264 -0.0090290530006208927 0.069176339731398473 -0.063673841158078309 -0.043854570757381507 0.054044844780832539 0.03964583330789994 0.034389007636236181 -0.053099179142873723 0.017142778373369288 0.11891681809072414 0.018531884217837108 -0.047769442780707411 0.018550602065118379
leaf_weight=29.667745396494865 0.85185777395963569 8.8131895773112756 8.9945411756634694 19.547007627785209 5.6929534673690787 3.3824575021862975 124.51046387478709 39.6108173802495 14.514372751116751 1.6775062642991532 2.8462181910872451 4.2758017145097238 4.7668080665171146 2.184635877609252 10.239885870367294 30.855297204107046 12.122517220675947 4.5137800201773626 4.0466383472084999 3.2503974325954914 3.0679460018873206 3.4121430143713951 2.8592641614377499 3.2195523232221595 1.3750442899763609 3.1777901016175729 1.2372792996466158 4.0023001655936241 7.8088900707662106 2.4156070984899998
leaf_count=127 5 55 55 172 46 17 3081 848 63 26 16 62 34 14 175 175 212 50 40 27 21 19 25 34 32 38 10 41 127 27
internal_value=0 0.0192854 -0.0329897 0.010734 0.0254712 -0.0417261 -0.0447641 -0.0113114 0.0410535 0.0314271 0.0467197 -0.0192311 0.0302429 0.00515196 -0.00850981 0.0586957 -0.026651 -0.00734048 0.0279398 -0.0228034 0.039695 0.00769515 0.00398587 -0.0179287 -0.0239787 -0.00967317 0.0224185 0.0422369 -0.0289942 0.0614735
internal_weight=0 224.721 144.219 195.054 116.904 128.745 125.362 78.1496 80.1503 65.6359 41.4887 69.3364 9.04261 24.1473 36.7537 35.3921 60.2938 20.6829 8.56042 6.09662 15.4746 6.48009 4.53677 31.0607 27.8412 17.6013 6.61462 5.23958 10.9867 4.60024
internal_count=5674 2476 3198 2349 1048 3103 3086 1301 545 482 269 1246 96 213 503 226 1150 302 90 43 95 40 51 457 423 248 83 51 165 41
is_linear=0
shrinkage=0.05


Tree=19
num_leaves=31
num_cat=0
split_feature=9 10 20 10 14 6 20 7 9 8 9 7 5 14 3 2 1 9 7 6 7 4 1 7 6 5 10 17 7 1
split_gain=173.983 26.3204 20.433 17.6354 14.9346 11.8033 9.78383 12.2759 7.43012 6.11318 5.9285 4.97368 4.32535 4.12606 4.24025 3.88404 3.64836 3.48979 4.74686 6.91084 5.34107 3.13136 3.51912 2.8507 2.65848 2.48106 2.4308 2.42289 2.37825 2.02213
threshold=1.0000000180025095e-35 15496.000000000002 2.5000000000000004 16188.000000000002 69.000000000000014 288.50000000000006 1.5000000000000002 1129.899502617496 106.00000000000001 1.0000000180025095e-35 123.50000000000001 3444.3398350555958 296.50000000000006 81.500000000000014 54.000000000000007 4.5000000000000009 2954.5000000000005 53.000000000000007 409.28074680749904 317.50000000000006 523.096513372495 1781.5000000000002 5745.5000000000009 268.98906256826166 388.50000000000006 25.500000000000004 1861.5000000000002 -417.6382555139017 3219.9431460575729 638.00000000000011
decision_type=2 2 2 2 2 2 2 2 2 2 2 2 2 2 2 2 2 2 2 2 2 2 2 2 2 2 2 2 2 2
left_child=2 4 25 8 16 13 7 9 -3 26 28 -12 -5 14 -6 23 24 -11 19 -19 -20 -18 -23 -10 -2 -1 -7 -27 -9 -17
right_child=1 3 -4 12 5 6 -8 10 15 17 11 -13 -14 -15 -16 29 21 18 20 -21 -22 22 -24 -25 -26 27 -28 -29 -30 -31
leaf_value=0.024843215674663011 0.07026898167261135 0.048346493574407928 0.057697221784579138 0.058579827068300609 -0.043518999015712649 -0.048244353682569074 0.068117300978908724 -0.0092341953077870673 0.035659035054240958 0.070937616317330837 0.06676223741964063 0.010458131274944061 0.00048663107503077593 0.045352835863586877 0.033893583996094941 0.001200190908310657 0.071301145285477138 0.075474154769043955 0.074021079632026476 -0.0082400091194586092 0.014251311201590802 0.0066766108318829023 0.067400142481120182 -0.030578193157848751 0.11495106309151944 0.0221994796915112 0.0055924534288629328 -0.046182870832444947 0.040434730179136139 -0.047214684734069277
leaf_weight=1.2616203650832165 9.5006240569055063 3.1446988508105269 5.0096930265426627 10.417374126613138 8.6268317662179452 5.093267407268284 18.932816728949547 5.0922715440392476 3.1608573310077217 3.1181046217679969 27.971125271171331 4.5619836747646323 4.6274191811680785 2.3559947907924643 2.2251945510506621 2.4089422076940563 11.327656585723163 2.7986465692520168 6.0614740513265124 20.698843609541655 9.7496648319065553 5.5788954161107522 4.168841078877449 3.3416889198124409 5.1245549097657195 1.3069734722375859 3.5636755153536797 145.57509420067072 4.5755817890167236 20.597164493054152
leaf_count=17 47 18 23 58 116 60 81 32 29 16 131 22 25 23 30 47 53 16 38 179 72 32 20 48 24 19 35 3922 20 421
internal_value=0 0.0285472 -0.0416163 -0.0040784 0.0382053 0.030084 0.0353461 0.028695 -0.0247151 0.0122092 0.0486509 0.0588669 0.0407117 -0.0146245 -0.0276456 -0.0325012 0.0667377 0.0200223 0.0159835 0.00173069 0.0371651 0.0534227 0.0326464 0.00161941 0.0859253 -0.0449747 -0.0260822 -0.0455744 0.014273 -0.0421452
internal_weight=0 208.824 153.153 47.6981 161.126 125.425 112.217 93.2846 32.6534 51.0837 42.201 32.5331 15.0448 13.208 10.852 29.5087 35.7006 42.4267 39.3086 23.4975 15.8111 21.0754 9.74774 6.50255 14.6252 148.144 8.65694 146.882 9.66785 23.0061
internal_count=5674 1693 3981 646 1047 871 702 621 563 416 205 153 83 169 146 545 176 321 305 195 110 105 52 77 71 3958 95 3941 52 468
is_linear=0
shrinkage=0.05


Tree=20
num_leaves=31
num_cat=0
split_feature=9 11 6 20 5 7 7 20 6 6 1 9 8 6 4 14 7 1 3 1 9 21 15 15 4 6 5 15 15 6
split_gain=163.98 32.2245 22.9794 15.2795 10.7779 10.6074 9.25458 10.6612 5.49399 6.92764 6.11814 5.33428 4.9489 4.82789 5.58115 4.4547 5.52617 6.37359 5.24988 5.6057 4.19317 4.1287 3.02754 2.87009 6.58024 2.74064 2.65246 2.76043 2.46092 2.44693
threshold=1.0000000180025095e-35 50.000000000000007 302.00000000000006 3.5000000000000004 131.50000000000003 3562.4317366693226 1289.7828838603637 1.5000000000000002 323.50000000000006 451.00000000000006 2496.5000000000005 562.50000000000011 1.0000000180025095e-35 324.50000000000006 2020.5000000000002 71.000000000000014 119.785930006914 6321.5000000000009 4.5000000000000009 4871.5000000000009 78.500000000000014 1.0000000180025095e-35 3127.5407903761761 496.03150705269644 1739.5000000000002 370.00000000000006 29.500000000000004 999.89596292619501 1516.3445626690639 242.00000000000003
decision_type=2 2 2 2 2 2 2 2 2 2 2 2 2 2 2 2 2 2 2 2 2 2 2 2 2 2 2 2 2 2
left_child=3 -2 5 21 8 -3 7 11 20 12 -11 15 -10 22 25 16 -6 -18 -17 -20 -4 -1 -8 24 -9 -15 -23 -28 -13 -29
right_child=1 2 4 -5 6 -7 13 23 9 10 -12 28 -14 14 -16 18 17 -19 19 -21 -22 26 -24 -25 -26 -27 27 29 -30 -31
leaf_value=0.00094541700310054396 0.072327137130447125 -0.037432407092040064 0.035400085534366112 0.09661298864128999 -0.025496961728267039 0.051379660305259478 0.0587431428592897 0.0052152411599346218 -0.02116259712689611 0.036919987503968792 -0.059515910531567975 -0.026101645547672699 0.053872822034412987 0.026620027903089701 -0.0082337447501312343 0.00076254104898423902 0.0321879387525889 -0.031856367954641793 0.024641834254241695 0.098812934187457416 -0.062159560529387717 0.029361434631952073 0.10394392026390978 0.087370295490801622 0.08588850050265158 0.069899973665699153 -0.0499964338466432 0.017457666408657084 0.044747824525781459 -0.037295957607666498
leaf_weight=5.1030913516879073 34.300850465893745 22.145204287022356 1.3948851525783563 1.9806836843490589 8.0169807225465757 3.9638303443789473 16.830749258399013 5.3364058062434214 2.9311819337308416 2.4868516325950614 4.8566005527973175 9.887659549713133 8.7783305309712887 6.5719180479645756 5.5089098475873461 4.8743476122617713 23.428716577589515 4.6569199413061133 4.8224259130656701 5.399870753288269 5.234585128724575 1.1935283839702595 4.7501086592674246 5.8656081631779662 4.8024483323097229 8.249003339558838 97.610682908445597 2.1599383838474742 1.399065576493739 36.900486633181572
leaf_count=88 152 407 8 8 64 26 77 23 34 31 70 154 59 31 37 39 162 32 31 28 87 16 20 26 21 45 2777 59 15 988
internal_value=0 0.0280719 0.0192563 -0.0413077 0.0269782 -0.0239491 0.0332507 0.0231212 -0.00242769 0.0112136 -0.026858 0.0137952 0.0350896 0.0522212 0.0347367 0.0206544 0.0111172 0.0215687 0.0434618 0.0638223 -0.0416324 -0.0432185 0.0686922 0.0595325 0.0434276 0.0507087 -0.0448532 -0.0455013 -0.0173194 -0.0342682
internal_weight=0 206.493 172.193 144.948 146.084 26.109 120.401 78.4904 25.6824 19.053 7.34345 62.486 11.7095 41.9107 20.3298 51.1993 36.1026 28.0856 15.0966 10.2223 6.62947 142.968 21.5809 16.0045 10.1389 14.8209 137.865 136.671 11.2867 39.0604
internal_count=5615 1679 1527 3936 1094 433 805 595 289 194 101 525 93 210 113 356 258 194 98 59 95 3928 97 70 44 76 3840 3824 169 1047
is_linear=0
shrinkage=0.05


Tree=21
num_leaves=31
num_cat=0
split_feature=9 11 6 20 7 20 7 9 6 4 14 4 14 9 21 5 15 7 19 15 4 4 0 5 15 0 9 4 6 4
split_gain=152.164 30.3591 20.7987 14.1787 9.75883 11.2919 9.72884 8.39743 6.87681 5.08063 4.66142 6.62438 4.0984 4.92243 4.04661 3.73478 3.69576 3.79165 3.13796 3.40639 3.34359 3.33874 2.74047 2.53603 2.81868 2.43245 2.38547 2.79486 2.32432 8.02622
threshold=1.0000000180025095e-35 50.000000000000007 302.00000000000006 3.5000000000000004 1141.8629848251396 1.5000000000000002 3562.4317366693226 562.50000000000011 324.50000000000006 534.50000000000011 71.000000000000014 1694.5000000000002 71.000000000000014 54.500000000000007 1.0000000180025095e-35 142.50000000000003 3060.4168492445174 119.785930006914 1.0000000180025095e-35 1516.3445626690639 2076.5000000000005 1660.5000000000002 131445.00000000003 29.500000000000004 999.89596292619501 51254.000000000007 123.50000000000001 2262.5000000000005 242.00000000000003 1178.5000000000002
decision_type=2 2 2 2 2 2 2 2 2 2 2 2 2 2 2 2 2 2 2 2 2 2 2 2 2 2 2 2 2 2
left_child=3 -2 6 14 5 7 25 9 -6 -4 11 15 16 -14 -1 -10 17 -11 -9 20 21 -20 -15 -16 -25 -3 -13 -28 29 -26
right_child=1 2 4 -5 8 -7 -8 18 10 12 -12 26 13 22 23 -17 -18 -19 19 -21 -22 -23 -24 24 28 -27 27 -29 -30 -31
leaf_value=0.00089748439805935158 0.070372448041016819 0.0044280418033415753 0.068973691167660695 0.092391926130139662 0.061147629226417623 0.050771753158137714 0.047858838286177541 -0.053763138211781226 -0.013813296890332083 -0.033181172878782708 0.062596738378481662 -0.047618878505069233 0.070561974624029564 0.036414902348452918 0.027199905402806337 0.050693059467168101 0.053577637082122702 0.0070507489434186322 -0.015487000375175539 0.077422267793464783 -0.052817533509280881 0.067949953259354975 -0.017085967076166303 -0.04980404678095815 0.15007822122271369 -0.043598448826256825 -0.043426957521261043 0.034235008227582513 -0.036698815187312481 -0.052026262580200038
leaf_weight=5.1067627891898146 33.510959774255753 3.0777046643197599 4.2265247479081145 1.967910736799239 25.729487407952547 18.303362667560577 4.040595404803752 5.757354974746705 2.8540515601635041 7.5946982763707629 6.5644511319696894 3.9742166474461538 5.683806635439395 5.2231660410761815 1.2231601402163494 10.495718121528624 3.2671184092760077 25.58584788441658 4.8187964819371683 1.0473944880068309 4.0353419482707977 1.5960863344371317 4.4182458035647869 93.199833896011114 0.74221748486161176 18.389784164726734 1.8770150877535341 3.0261663757264614 35.657605450600386 1.4528016149997709
leaf_count=88 152 46 20 8 123 83 26 114 23 64 40 22 34 33 16 53 14 188 81 11 88 19 35 2777 20 361 19 30 988 39
internal_value=0 0.026843 0.0183417 -0.0408671 0.025616 0.0156434 -0.0233165 0.00686621 0.0423632 0.0162633 0.0255765 0.0146432 0.0119602 0.0336551 -0.0427759 0.0369022 0.00283812 -0.00215794 -0.0236311 -0.00854263 -0.0171586 0.00527294 0.0118977 -0.044462 -0.0451309 -0.0367131 -0.0188298 0.00450478 -0.0336247 0.0163128
internal_weight=0 205.098 171.587 139.35 146.079 91.5577 25.5081 73.2544 54.5211 55.9994 28.7916 22.2272 51.7729 15.3252 137.382 13.3498 36.4477 33.1805 17.255 11.4976 10.4502 6.41488 9.64141 132.276 131.052 21.4675 8.8774 4.90318 37.8526 2.19502
internal_count=5615 1679 1527 3936 1094 784 433 701 310 388 187 147 368 102 3928 76 266 252 313 199 188 100 68 3840 3824 407 71 49 1047 59
is_linear=0
shrinkage=0.05


Tree=22
num_leaves=31
num_cat=0
split_feature=9 11 6 20 7 7 20 9 6 1 10 10 4 21 14 3 1 0 6 1 19 15 4 0 1 17 15 7 3 7
split_gain=141.273 28.6585 18.8481 13.1826 8.9401 8.80737 10.1876 7.64456 6.22277 8.64243 5.33711 6.63721 4.49224 3.96456 3.61134 4.27602 3.61597 5.68749 3.756 3.47221 3.04695 2.99 3.20133 2.97409 2.67055 3.75544 2.46967 2.45843 2.41224 7.46503
threshold=1.0000000180025095e-35 50.000000000000007 302.00000000000006 3.5000000000000004 3562.4317366693226 1141.8629848251396 1.5000000000000002 562.50000000000011 324.50000000000006 1605.5000000000002 11165.000000000002 4636.5000000000009 534.50000000000011 1.0000000180025095e-35 71.000000000000014 4.5000000000000009 3496.5000000000005 181547.00000000003 347.50000000000006 4871.5000000000009 1.0000000180025095e-35 1516.3445626690639 2076.5000000000005 133136.00000000003 2805.5000000000005 -22.265992995874957 999.89596292619501 5290.2414891503686 4.5000000000000009 19032.072888596336
decision_type=2 2 2 2 2 2 2 2 2 2 2 2 2 2 2 2 2 2 2 2 2 2 2 2 2 2 2 2 2 2
left_child=3 -2 4 13 -3 6 7 12 -7 -10 11 -11 -4 -1 16 -16 17 -14 -18 -17 -9 22 23 -22 -8 -26 -15 -12 -28 -30
right_child=1 2 5 -5 -6 8 24 20 9 10 27 -13 14 26 15 19 18 -19 -20 -21 21 -23 -24 -25 25 -27 28 -29 29 -31
leaf_value=0.00085201112246161058 0.068581295522073996 -0.036020954460434108 0.064547498962311906 0.088713758308786639 0.044675996791570721 0.058131280198153681 0.01622846136450511 -0.053579732590629307 0.074420621175470353 -0.013787726130532425 -0.0047592572981643841 0.05604779898402569 0.0033675963132665633 -0.048547058530147916 -0.0046861385594020597 0.021081239482751229 -0.031356658765159841 0.07187884814804904 0.012180402617812572 0.079440669944383313 -0.036769539448641572 0.070361001525802713 -0.05267466613471336 0.032629921904111688 0.028797302859884823 0.082183067643398125 -0.04636978995112568 -0.064645898668574883 -0.027471373374944444 0.12663963454795085
leaf_weight=5.1102497912943354 32.687765270471573 20.806424099951986 4.2888358756899825 1.9475240856409062 4.110163837671279 25.711642868816853 4.8108150064945248 5.4948385506868371 6.6199251152575043 5.7096776142716434 5.5656086727976781 8.419099032878874 12.427924580872061 89.846645336598158 5.3590238913893691 5.0595224387943727 10.913446530699732 4.005616031587123 9.0718565694987756 5.1359865516424179 2.5671098306775075 1.0936140939593322 3.8486841320991516 3.8726140484213829 5.7066250517964372 7.7924752235412571 17.967534262686968 2.4761409685015678 18.313504818826917 0.82101370021700759
leaf_count=88 152 407 20 8 26 123 21 114 39 32 52 37 94 2788 43 32 79 29 64 27 44 11 88 56 26 36 513 27 523 16
internal_value=0 0.0256877 0.017482 -0.040423 -0.0227094 0.0243434 0.0148612 0.00651127 0.0402535 0.0242875 0.00931814 0.0278261 0.0153646 -0.0423274 0.0113061 0.0314734 0.00269259 0.020067 -0.011594 0.0504798 -0.0230031 -0.00824183 -0.016597 0.00496475 0.0482152 0.0596147 -0.0440656 -0.023199 -0.0332131 -0.0208589
internal_weight=0 203.555 170.868 134.006 24.9166 145.951 91.449 73.1391 54.5021 28.7905 22.1705 14.1288 56.2622 132.059 51.9734 15.5545 36.4188 16.4335 19.9853 10.1955 16.8769 11.382 10.2884 6.43972 18.3099 13.4991 126.949 8.04175 37.1021 19.1345
internal_count=5615 1679 1527 3936 433 1094 784 701 310 187 148 69 388 3928 368 102 266 123 143 59 313 199 188 100 83 62 3840 79 1052 539
is_linear=0
shrinkage=0.05


Tree=23
num_leaves=31
num_cat=0
split_feature=9 11 6 20 5 7 7 20 6 6 1 5 0 7 8 21 0 9 6 4 6 6 15 14 15 0 15 15 4 5
split_gain=131.205 27.1019 17.088 12.2758 8.74836 8.21873 6.86957 8.03513 5.15277 5.87207 5.52912 4.89781 5.41415 4.19724 3.98939 3.88274 3.83884 3.78429 3.77634 4.44067 3.68925 10.658 4.42553 4.34462 4.58586 3.14176 2.82593 2.61862 5.83484 2.54081
threshold=1.0000000180025095e-35 50.000000000000007 302.00000000000006 3.5000000000000004 131.50000000000003 3562.4317366693226 1289.7828838603637 1.5000000000000002 323.50000000000006 451.00000000000006 2496.5000000000005 278.50000000000006 173104.50000000003 316.28991202548315 1.0000000180025095e-35 1.0000000180025095e-35 180831.00000000003 78.500000000000014 324.50000000000006 2020.5000000000002 388.50000000000006 406.50000000000006 428.35795430517669 541.50000000000011 954.56692351352262 132718.00000000003 3127.5407903761761 496.03150705269644 1739.5000000000002 29.500000000000004
decision_type=2 2 2 2 2 2 2 2 2 2 2 2 2 2 2 2 2 2 2 2 2 2 2 2 2 2 2 2 2 2
left_child=3 -2 5 15 8 -3 7 11 17 14 -11 20 -13 -14 -10 -1 -16 -4 26 -20 23 -22 -23 24 -6 -25 -8 28 -9 -17
right_child=1 2 4 -5 6 -7 18 27 9 10 -12 12 13 -15 16 29 -18 -19 19 -21 21 22 -24 25 -26 -27 -28 -29 -30 -31
leaf_value=0.00080887307158944866 0.066932359721140061 -0.035295827646698329 0.029044441725679812 0.085482843292054148 -0.013368642597942092 0.04178330240027036 0.050213805819187933 0.00063859642364016197 -0.019885867829461664 0.03247041187699138 -0.059155848887305268 -0.024065456591290495 0.084093487761951261 -0.00028955355585101952 0.071363097885316085 0.028626487249942885 0.0018203535202819723 -0.063051542571832098 0.043904922100520459 -0.0088800286247971965 0.12431382327018321 0.042235806848311526 -0.026926094902777697 0.077408180017216707 0.040940093760185085 0.011674810741939424 0.094157954751341061 0.078618790945506806 0.076463381421492005 -0.044385976461675664
leaf_weight=5.1135619990527621 31.839942097663879 20.188027728348974 1.4388468936085725 1.9207413047552098 15.711086511611944 4.1732828952372065 16.713609747588638 5.3663369789719564 2.8756135180592546 2.5721191912889472 4.5751366876065731 14.837558016180994 2.3544299490749827 3.9392270743846893 5.8768844045698643 1.20344978570938 2.9961293525993824 4.9624586328864098 14.825313817709686 5.4488922096788874 3.1304580420255652 6.9027694612741453 3.4785799160599709 3.680620875209569 5.1649021692574015 3.5915883742272854 4.6836887001991263 5.7838828638195983 4.8124165087938309 120.64922546595335
leaf_count=88 152 407 8 8 138 26 77 23 34 31 70 136 20 33 40 16 19 87 76 37 15 68 36 24 27 28 20 26 21 3824
internal_value=0 0.0245952 0.0166696 -0.0399758 0.0231495 -0.0220916 0.0287645 0.0200777 -0.00358008 0.00955416 -0.0261818 0.0120252 -0.0075822 0.0312778 0.0312941 -0.0418737 0.0478808 -0.0423508 0.0451814 0.0297184 0.0219706 0.0434463 0.0190611 0.0116617 6.78137e-05 0.0449439 0.0598328 0.0517535 0.0364878 -0.0436649
internal_weight=0 201.924 170.084 128.887 145.723 24.3613 120.425 78.7539 25.2972 18.8959 7.14726 62.7912 21.1312 6.29366 11.7486 126.966 8.87301 6.40131 41.6715 20.2742 41.66 13.5118 10.3813 28.1482 20.876 7.27221 21.3973 15.9626 10.1788 121.853
internal_count=5615 1679 1527 3936 1094 433 805 595 289 194 101 525 189 53 93 3928 59 95 210 113 336 119 104 217 165 52 97 70 44 3840
is_linear=0
shrinkage=0.05


Tree=24
num_leaves=31
num_cat=0
split_feature=9 11 6 20 5 7 15 20 14 6 15 14 7 6 6 1 15 6 9 8 0 15 4 17 6 4 5 5 15 6
split_gain=121.875 25.6659 15.504 11.693 7.86255 7.5619 6.33837 6.33242 5.65853 5.35999 5.03344 4.9581 5.9818 4.78972 5.31688 5.22824 4.72109 3.61694 3.60436 3.54975 3.37376 3.23454 4.6834 3.18261 2.76579 3.41503 2.55644 2.42448 2.40442 2.37762
threshold=1.0000000180025095e-35 50.000000000000007 302.00000000000006 2.5000000000000004 131.50000000000003 3562.4317366693226 2061.3838342706908 1.5000000000000002 69.000000000000014 388.50000000000006 -67.53306363999998 71.000000000000014 181.96355057685375 323.50000000000006 451.00000000000006 1399.5000000000002 336.95075056145453 325.50000000000006 78.500000000000014 1.0000000180025095e-35 180831.00000000003 496.03150705269644 1694.5000000000002 -417.6382555139017 324.50000000000006 2020.5000000000002 43.500000000000007 29.500000000000004 999.89596292619501 242.00000000000003
decision_type=2 2 2 2 2 2 2 2 2 2 2 2 2 2 2 2 2 2 2 2 2 2 2 2 2 2 2 2 2 2
left_child=3 -2 5 23 13 26 7 8 9 17 -10 12 -12 18 19 -16 -13 -6 -4 -15 -21 22 -9 -1 -8 -26 -3 -25 -29 -30
right_child=1 2 4 -5 6 -7 24 21 10 -11 11 16 -14 14 15 -17 -18 -19 -20 20 -22 -23 -24 27 25 -27 -28 28 29 -31
leaf_value=0.046782706868885672 0.065407657896276034 0.02816244799466679 0.027281922836728208 0.040101008700143097 0.059599517101038148 0.039141995617979243 0.06416406627879194 -0.0031152333484627602 -0.04081201259203257 0.082670492280469299 -0.042055344274555678 0.058478862722319884 0.011345437156891227 -0.019099372824364691 0.051786726021754215 -0.049577197593121763 0.0071464287396422327 -0.0075495745166487774 -0.062671851280866414 0.06674365643808601 0.0017283252951404609 0.080992610711020346 0.061292787675554156 0.026536917431805369 0.05021295657058239 -0.0065986467074437231 -0.039767107736505325 -0.048559390003611508 0.018255337312998148 -0.03621597254513708
leaf_weight=0.99034013971686263 30.97502900660038 1.4998074546456397 1.4547868072986627 4.4460925310850135 3.3213738314807397 4.2306141331791869 14.095925141125919 4.8877918720245379 4.7109037786722174 5.4731460660696021 6.1814152002334586 9.6872726716101187 34.586817447096109 2.8451216146349916 1.670229710638522 5.337079718708992 8.3314726613461954 5.0614006407558918 4.7483161427080631 5.9670160077512264 2.9978366643190384 5.3836471512913695 6.6793787032365799 1.2325197309255589 8.0221909359097463 3.9465226233005515 18.097548309713602 83.009437911212444 2.1362785305827847 32.184506012126803
leaf_count=15 152 13 8 21 18 26 64 21 46 28 64 72 268 34 19 82 62 42 87 40 19 25 29 16 39 27 394 2826 60 998
internal_value=0 0.0235629 0.0159033 -0.0395176 0.0220302 -0.0214812 0.0273314 0.0212994 0.0152343 0.0441839 0.00891716 0.0129022 0.00324863 -0.00347303 0.00908739 -0.0254166 0.0347439 0.0190558 -0.0415754 0.0295599 0.0450026 0.0489774 0.0340767 -0.0424786 0.0491558 0.0314801 -0.0345684 -0.0432242 -0.043957 -0.0328254
internal_weight=0 200.193 169.218 123.999 145.39 23.828 120.369 94.3046 77.3538 13.8559 63.4979 58.787 40.7682 25.0204 18.8173 7.00731 18.0187 8.38277 6.2031 11.81 8.96485 16.9508 11.5672 119.553 26.0646 11.9687 19.5974 118.563 117.33 34.3208
internal_count=5615 1679 1527 3936 1094 433 805 675 600 88 512 466 332 289 194 101 134 60 95 93 59 75 50 3915 130 66 407 3900 3884 1058
is_linear=0
shrinkage=0.05


Tree=25
num_leaves=31
num_cat=0
split_feature=9 11 10 20 8 10 14 7 15 6 7 7 10 0 15 20 15 0 3 7 7 9 6 6 0 4 15 5 15 9
split_gain=116.413 23.8954 17.6807 9.35199 8.70532 8.14791 9.1363 6.56931 5.60017 7.8612 5.60839 5.26052 5.16926 4.57575 4.56318 4.46488 5.76213 4.62533 4.46031 5.88753 4.2839 4.18535 4.59027 8.69312 4.08356 3.75704 5.70809 3.74661 3.6571 3.59479
threshold=1.0000000180025095e-35 50.000000000000007 11188.500000000002 3.5000000000000004 1.0000000180025095e-35 17163.000000000004 69.000000000000014 265.24490161539455 333.55080302529979 325.50000000000006 37.542646361786389 181.96355057685375 10145.000000000002 71556.000000000015 2979.7874015388993 2.5000000000000004 304.37205791493454 142154.50000000003 4.5000000000000009 19032.072888596336 388.27697068360715 41.000000000000007 323.50000000000006 355.00000000000006 84814.000000000015 1648.5000000000002 517.12665065659758 23.500000000000004 954.56692351352262 53.000000000000007
decision_type=2 2 2 2 2 2 2 2 2 2 2 2 2 2 2 2 2 2 2 2 2 2 2 2 2 2 2 2 2 2
left_child=3 -2 4 14 11 6 -4 8 9 13 -10 -3 -13 -6 27 16 17 20 -16 24 -9 -8 -23 -24 -20 26 -18 -1 -28 -7
right_child=1 2 5 -5 7 29 21 15 10 -11 -12 12 -14 -15 18 -17 25 -19 19 -21 -22 22 23 -25 -26 -27 28 -29 -30 -31
leaf_value=0.058749314182191772 0.064051006556259601 0.04204586825214781 0.021673245897324476 0.080400097351959993 0.051693357368621032 0.0019724563960701372 0.07090478271509508 -0.060010552152724765 0.024095698273057801 0.068925049787165946 -0.055660509629591598 -0.040349451981073731 0.037649826970639788 -0.032001741391585847 -0.044274011314372606 0.088509497144372312 0.1033874337310164 0.037792257231984872 0.086650800962208063 0.14356814180426777 0.011991038955059184 -0.049506189953585161 0.055628582764390193 -0.032997955378680985 -0.018879203084925123 0.029805087773508123 0.0021628798914142366 -0.044839492801912031 0.054075101028617768 0.066642711532292259
leaf_weight=0.88032005727291007 30.669527873396873 4.1413069590926197 12.055519517511128 1.6264056563377369 2.3746365718543547 3.9515889883041364 1.0170925632119168 3.1978993751108664 3.8358384706079942 6.5315991379320621 5.1818403415381908 9.5989105291664583 2.7277997061610213 5.2293068617582321 6.5708104558289033 4.3624271005392066 5.2315455451607731 8.5614991858601552 1.0832008868455885 0.76289421319961537 5.8356377780437469 17.598957613110542 3.6208267360925666 11.731640556827186 5.9637556113302708 25.228257670998573 3.997163679450753 103.22751405462623 22.432574041187763 4.7102095857262611
leaf_count=11 155 36 83 7 15 23 7 27 30 43 41 106 17 52 192 19 30 51 32 16 34 402 34 198 167 164 27 3542 104 25
internal_value=0 0.0233727 0.0161676 -0.0386822 0.0270229 -0.00734855 -0.0157213 0.0324689 0.00905274 0.0286934 -0.0217347 -0.00670905 -0.0230889 -0.00586459 -0.0403167 0.039345 0.0364656 0.0114593 -0.0139159 0.0116259 -0.0134977 -0.0289927 -0.0320762 -0.0120957 -0.00265799 0.0441996 0.0556694 -0.0439636 0.046224 0.0371396
internal_weight=0 203.824 173.154 120.115 118.468 54.6858 46.024 102 23.1532 14.1355 9.01768 16.468 12.3267 7.60394 118.488 78.847 74.4846 17.595 14.3807 7.80985 9.03354 33.9685 32.9514 15.3525 7.04696 56.8895 31.6613 104.108 26.4297 8.6618
internal_count=5690 1723 1568 3967 796 772 724 637 181 110 71 159 123 67 3960 456 437 112 407 215 61 641 634 232 199 325 161 3553 131 48
is_linear=0
shrinkage=0.05


Tree=26
num_leaves=31
num_cat=0
split_feature=9 11 6 20 20 8 15 6 9 14 5 15 3 7 3 4 14 4 6 5 21 9 0 0 0 15 6 20 9 1
split_gain=107.993 22.7401 15.2957 9.45423 8.72748 8.34353 7.45295 6.50773 6.41636 5.94344 5.71106 4.84305 4.28281 4.74715 8.06111 4.24018 3.90945 4.36776 3.81171 5.62831 3.77222 3.76735 3.44103 3.18004 3.13049 2.88807 2.66154 2.43947 2.28682 3.72234
threshold=1.0000000180025095e-35 50.000000000000007 304.00000000000006 1.5000000000000002 3.5000000000000004 1.0000000180025095e-35 1369.8442574819487 324.50000000000006 29.500000000000004 69.000000000000014 20.500000000000004 2979.7874015388993 4.5000000000000009 4228.6812898241833 54.000000000000007 1943.5000000000002 69.000000000000014 2364.5000000000005 238.00000000000003 249.50000000000003 1.0000000180025095e-35 123.50000000000001 83033.500000000015 104614.00000000001 154130.50000000003 432.92436997370015 403.00000000000006 2.5000000000000004 562.50000000000011 2954.5000000000005
decision_type=2 2 2 2 2 2 2 2 2 2 2 2 2 2 2 2 2 2 2 2 2 2 2 2 2 2 2 2 2 2
left_child=4 -2 9 5 10 15 8 -8 -7 -3 -1 27 -13 23 -15 28 24 25 19 -11 -5 -9 -19 -14 -10 -18 -23 -12 29 -4
right_child=1 2 3 20 -6 6 7 21 16 18 11 12 13 14 -16 -17 17 22 -20 -21 -22 26 -24 -25 -26 -27 -28 -29 -30 -31
leaf_value=0.11618230163046724 0.062734480890511451 0.02874725210340498 -0.021946753000591269 0.03426142470955567 0.078090649552952154 0.085625987027289574 0.062443429214288415 -0.014390152793102804 0.0099611272104754289 -0.040579448876523143 -0.045798418091245491 -0.043873165450883433 0.045849087744566634 0.13626767879396218 -0.052165788716182361 -0.04229483593400514 0.023521411068542331 0.028203790872583803 -0.046602997692256391 0.0595436340821274 0.076790758093307876 0.01276546583758832 -0.031952434191683331 -0.039386929091086903 0.07019560710947724 -0.0039059429753490319 0.060108365417130549 0.0026681359201614178 -0.022837056635009775 0.03682254357771577
leaf_weight=0.58378630876541038 29.770351007580757 4.8745929300785091 4.1743286252021843 12.280977852642536 1.5916570127010334 2.8895206004381171 17.840714517980814 5.5780782401561764 4.225326042622326 3.3349912948906448 96.776074547320604 6.3060247153043729 1.5339159481227396 1.5861832052469256 0.88381768763065327 7.138500850647687 24.783439170569181 3.0126703120768061 14.331609567627309 2.4236965924501419 9.0604540929198265 6.2064247056841833 11.270193740725515 3.8179411701858044 4.4067264571785927 15.664433531463144 5.6906334422528744 2.6678449511528006 5.5957184210419646 7.5995297878980637
leaf_count=7 155 35 31 55 7 13 85 27 25 64 3534 192 43 39 23 100 192 23 340 28 42 33 132 109 22 130 33 13 109 49
internal_value=0 0.022381 0.015412 0.0215411 -0.0381834 0.0163315 0.0226499 0.041201 0.0127611 -0.0207804 -0.0398046 -0.0406064 -0.0132131 0.0115052 0.0688423 -0.0098535 0.00943831 0.00450598 -0.0327975 0.00156001 0.0523172 0.0195142 -0.0192637 -0.0149571 0.0407113 0.0128995 0.0354107 -0.0444982 0.00347915 0.0159864
internal_weight=0 202.153 172.383 147.418 115.747 126.076 101.568 35.3159 66.2523 24.9649 114.156 113.572 14.1279 7.82186 2.47 24.5081 63.3628 54.7307 20.0903 5.75869 21.3414 17.4751 14.2829 5.35186 8.63205 40.4479 11.8971 99.4439 17.3696 11.7739
internal_count=5690 1723 1568 1101 3967 1004 715 178 537 467 3960 3953 406 214 62 289 524 477 432 92 97 93 155 152 47 322 66 3547 189 80
is_linear=0
shrinkage=0.05


Tree=27
num_leaves=31
num_cat=0
split_feature=9 11 10 20 10 14 22 10 9 15 1 6 5 15 3 19 4 6 5 1 4 15 0 0 1 20 1 9 1 4
split_gain=100.275 21.6473 15.1177 8.15382 6.93285 7.97228 6.79634 6.81658 5.2324 6.71202 5.07901 6.50791 5.02444 4.79122 4.02266 4.72907 9.53075 6.97392 3.82403 4.70153 3.7109 3.69662 3.63401 8.42008 3.95125 3.4875 3.4265 3.19871 3.14685 3.08182
threshold=1.0000000180025095e-35 50.000000000000007 11188.500000000002 3.5000000000000004 17163.000000000004 69.000000000000014 1.5000000000000002 4636.5000000000009 50.500000000000007 954.56692351352262 856.50000000000011 323.50000000000006 20.500000000000004 2979.7874015388993 4.5000000000000009 1.0000000180025095e-35 2076.5000000000005 326.50000000000006 296.50000000000006 4747.5000000000009 830.50000000000011 115.77267932671275 11676.000000000002 83851.500000000015 6263.5000000000009 1.5000000000000002 5745.5000000000009 53.000000000000007 2271.5000000000005 2705.5000000000005
decision_type=2 2 2 2 2 2 2 2 2 2 2 2 2 2 2 2 2 2 2 2 2 2 2 2 2 2 2 2 2 2
left_child=3 -2 6 12 5 28 7 22 -9 18 11 -7 -1 -14 -15 -16 17 -17 21 -20 -11 -10 -3 -24 26 -23 -25 -6 -4 -22
right_child=1 2 4 -5 27 10 -8 8 9 20 -12 -13 13 14 15 16 -18 -19 19 -21 29 25 23 24 -26 -27 -28 -29 -30 -31
leaf_value=0.10026675078385039 0.061502572820358828 -0.056002464995231163 -0.020970368994447045 0.076015437167688993 0.0001618993290972814 -0.036965767639959561 0.07552362150464341 0.082746957576798522 -0.042001363268950154 0.058769534024527753 -0.036240882185774169 0.081029715942374528 -0.044136487887762532 -0.043465103773637631 -0.027520874299598087 0.19550611068499404 -0.051894467987048234 0.02716112379793223 0.0053968759094437189 0.072927092560408524 0.0013940517259254171 0.0011745911306513667 0.065438742779694511 0.0011259640179443382 -0.041006477497589303 0.057688653287799145 0.062309662487944298 0.060760097180709308 0.035226969638459685 0.048441836656575699
leaf_weight=0.64099104702472587 28.871185466647148 2.2744505442678919 3.4858153723180285 1.5542986541986454 3.9819077402353269 2.4186688028275958 6.2339831292629233 4.5943438522517672 4.0668045617640045 18.347764953970909 27.940748028457165 2.2608896605670452 95.352819763123989 6.0533814840018731 4.0037885867059231 1.2066914103925235 1.450434038415551 1.255060566589236 5.3688257634639722 4.9572142735123634 7.0756823830306512 17.041298123076562 5.6379128582775584 24.542799750342969 5.135680215433239 3.2505758777260771 2.5236350856721392 4.8061490803956985 8.7292122170329076 6.8508017137646675
leaf_count=7 155 15 27 7 23 54 28 23 28 83 564 23 3547 192 111 28 42 33 38 31 43 133 40 218 51 15 19 25 56 31
internal_value=0 0.0214474 0.0147053 -0.0377042 -0.00730529 -0.0152648 0.024716 0.0218796 0.0311293 0.0275876 -0.0281667 0.0200428 -0.0393116 -0.04013 -0.0127825 0.0106806 0.0497765 0.10968 0.0123171 0.0378161 0.0439985 0.00150774 0.0053808 0.00907037 -0.00079855 0.0102276 0.00683064 0.0333028 0.0191899 0.0245381
internal_weight=0 200.396 171.525 111.517 53.6234 44.8353 117.902 111.668 71.5533 66.959 32.6203 4.67956 109.963 109.322 13.9694 7.91597 3.91219 2.46175 34.6847 10.326 32.2742 24.3587 40.1145 37.84 32.2021 20.2919 27.0664 8.78806 12.215 13.9265
internal_count=5690 1723 1568 3967 772 724 796 768 425 402 641 77 3960 3953 406 214 103 61 245 69 157 176 343 328 288 148 237 48 83 74
is_linear=0
shrinkage=0.05


Tree=28
num_leaves=31
num_cat=0
split_feature=9 11 10 20 8 20 10 7 10 15 6 7 7 10 5 15 20 15 0 0 7 15 7 3 19 4 3 0 7 0
split_gain=93.0779 20.6244 13.658 7.61911 6.8775 6.33582 6.20446 5.87158 5.12044 4.97182 6.39919 4.9575 4.63731 4.56218 4.47836 4.71885 4.10635 4.84255 4.0153 3.96716 3.90082 3.8152 5.43003 3.7731 4.10762 7.78696 5.21923 3.64965 3.54085 3.36997
threshold=1.0000000180025095e-35 50.000000000000007 11188.500000000002 3.5000000000000004 1.0000000180025095e-35 1.5000000000000002 17163.000000000004 265.24490161539455 15653.500000000002 333.55080302529979 325.50000000000006 37.542646361786389 181.96355057685375 10145.000000000002 20.500000000000004 2979.7874015388993 2.5000000000000004 304.37205791493454 71556.000000000015 142154.50000000003 388.27697068360715 415.57685823742787 1.0000000180025095e-35 4.5000000000000009 1.0000000180025095e-35 2076.5000000000005 54.000000000000007 65134.000000000007 272.04739302850174 181741.50000000003
decision_type=2 2 2 2 2 2 2 2 2 2 2 2 2 2 2 2 2 2 2 2 2 2 2 2 2 2 2 2 2 2
left_child=3 -2 4 14 12 6 8 9 21 10 18 -11 -3 -14 -1 -16 17 19 -6 20 -9 22 -4 -17 -25 26 -26 -10 -24 -21
right_child=1 2 5 -5 7 -7 -8 16 27 11 -12 -13 13 -15 15 23 -18 -19 -20 29 -22 -23 28 24 25 -27 -28 -29 -30 -31
leaf_value=0.087857608501186166 0.060345504192240808 0.038645247029522753 -0.058266003138795985 0.074142464189770038 0.04598266803009754 0.040681401418657032 0.030287070165335828 -0.059497645982341751 0.042895563656141944 0.019521481212135622 0.060129884595711273 -0.055584793796686995 -0.039273458694258329 0.03462340389698939 -0.043734526689437545 -0.043049422393135472 0.083128551979511855 0.039307350216726662 -0.031876115438452132 0.065345365474855172 0.0099090519992378126 -0.029411778673561647 0.069979700461348784 -0.026825511799110274 0.14511132730036386 -0.051798820694971194 0.0001131105942579679 -0.043545216727486666 0.0072669376425872432 0.0028972455405377865
leaf_weight=0.69346567988395591 27.97627928853035 4.1631573326885727 2.0229320041835335 1.514883056282996 2.439185559749605 6.1480889841914168 6.9523008801043025 3.0914296954870242 1.3029656987637306 3.8837520256638509 6.7118917815387249 5.0591451376676559 9.2689475640654546 2.6961711421608916 91.515184944495559 5.8123626764863721 4.1768721193075171 56.514283660799265 5.1568738166242838 4.2276827022433263 5.8650326393544674 7.7278611660003653 3.7184903603047115 3.9047448225319368 1.7593442164361479 1.3821788392961023 0.95885128900408734 19.437165342271328 5.7025130018591881 4.4179715141654015
leaf_count=7 155 36 23 7 15 38 40 27 23 30 43 41 106 17 3547 192 19 325 52 26 34 88 34 111 35 42 26 469 57 25
internal_value=0 0.0205525 0.0140302 -0.0371977 0.0235235 -0.00704225 -0.0133031 0.028341 -0.0208961 0.00627803 0.0245573 -0.0229674 -0.0068071 -0.0226218 -0.0387885 -0.0396223 0.034893 0.0321747 -0.00687473 0.00927409 -0.0140475 -0.00226894 0.0160601 -0.0123866 0.00987708 0.0448286 0.0939628 -0.0381147 0.0320198 0.0334341
internal_weight=0 198.661 170.685 107.541 117.672 53.0123 46.8642 101.544 39.9119 23.2508 14.308 8.9429 16.1283 11.9651 106.026 105.333 78.2933 74.1164 7.59606 17.6021 8.95646 19.1718 11.4439 13.8175 8.00512 4.10037 2.7182 20.7401 9.421 8.64565
internal_count=5690 1723 1568 3967 796 772 734 637 694 181 110 71 159 123 3960 3953 456 437 67 112 61 202 114 406 214 103 61 492 91 51
is_linear=0
shrinkage=0.05


Tree=29
num_leaves=31
num_cat=0
split_feature=9 11 11 6 20 20 7 1 7 9 6 6 17 6 4 4 3 5 6 4 9 4 7 15 3 6 5 5 0 21
split_gain=86.3535 19.6809 13.8949 12.1603 7.90804 7.29242 6.90827 5.61728 5.53061 5.37758 5.08736 4.91081 4.61043 4.48513 4.41044 4.36757 4.52638 4.1239 4.10939 4.61698 3.85523 4.34824 3.81735 3.75752 5.63659 4.81267 3.65466 17.9908 4.08775 3.41881
threshold=1.0000000180025095e-35 50.000000000000007 50.000000000000007 304.00000000000006 1.5000000000000002 3.5000000000000004 1031.603094153809 209.50000000000003 3323.8296976083652 32.500000000000007 232.50000000000003 323.50000000000006 77.364787295771663 317.50000000000006 2064.5000000000005 2752.5000000000005 4.5000000000000009 20.500000000000004 326.50000000000006 1648.5000000000002 112.50000000000001 2034.5000000000002 2676.43437762643 999.89596292619501 6.5000000000000009 242.00000000000003 91.500000000000014 72.500000000000014 103280.50000000001 1.0000000180025095e-35
decision_type=2 2 2 2 2 2 2 2 2 2 2 2 2 2 2 2 2 2 2 2 2 2 2 2 2 2 2 2 2 2
left_child=2 -2 -1 10 6 17 9 -8 22 -5 20 -10 -12 -11 -15 -16 -17 -4 -13 -20 -3 -22 -9 -19 25 -25 27 28 -26 -6
right_child=1 3 5 4 29 -7 7 8 11 13 12 18 -14 14 15 16 -18 23 19 -21 21 -23 -24 24 26 -27 -28 -29 -30 -31
leaf_value=0.22315840445211721 0.059254746856961298 0.090734296550133653 0.077889760196527269 0.07678256707750325 0.029942753829621166 0.072445319114439299 0.10137758455144884 0.024395173968263215 0.054309317093823084 0.043094053947912749 -0.037964560463063103 -0.067666205741486338 0.060002177547045843 0.0048900146848456982 -0.051168462983182408 -0.057261882522290086 0.026165431489974657 -0.046849998375412108 0.037401326321544769 -0.033451711061517807 -0.05719973262373395 0.060233173285483145 0.06023503729738116 0.079665855920154252 0.084985719845369789 -0.048656365689796366 -0.017746662651085317 0.24507377853119308 -0.051548408573171792 0.070924669837451049
